{"learner":{"attributes":{"best_iteration":"199","best_score":"0.0805913777613525","scikit_learn":"{\"_estimator_type\": \"classifier\"}"},"feature_names":[],"feature_types":[],"gradient_booster":{"model":{"cats":{"enc":[],"feature_segments":[],"sorted_idx":[]},"gbtree_model_param":{"num_parallel_tree":"1","num_trees":"200"},"iteration_indptr":[0,1,2,3,4,5,6,7,8,9,10,11,12,13,14,15,16,17,18,19,20,21,22,23,24,25,26,27,28,29,30,31,32,33,34,35,36,37,38,39,40,41,42,43,44,45,46,47,48,49,50,51,52,53,54,55,56,57,58,59,60,61,62,63,64,65,66,67,68,69,70,71,72,73,74,75,76,77,78,79,80,81,82,83,84,85,86,87,88,89,90,91,92,93,94,95,96,97,98,99,100,101,102,103,104,105,106,107,108,109,110,111,112,113,114,115,116,117,118,119,120,121,122,123,124,125,126,127,128,129,130,131,132,133,134,135,136,137,138,139,140,141,142,143,144,145,146,147,148,149,150,151,152,153,154,155,156,157,158,159,160,161,162,163,164,165,166,167,168,169,170,171,172,173,174,175,176,177,178,179,180,181,182,183,184,185,186,187,188,189,190,191,192,193,194,195,196,197,198,199,200],"tree_info":[0,0,0,0,0,0,0,0,0,0,0,0,0,0,0,0,0,0,0,0,0,0,0,0,0,0,0,0,0,0,0,0,0,0,0,0,0,0,0,0,0,0,0,0,0,0,0,0,0,0,0,0,0,0,0,0,0,0,0,0,0,0,0,0,0,0,0,0,0,0,0,0,0,0,0,0,0,0,0,0,0,0,0,0,0,0,0,0,0,0,0,0,0,0,0,0,0,0,0,0,0,0,0,0,0,0,0,0,0,0,0,0,0,0,0,0,0,0,0,0,0,0,0,0,0,0,0,0,0,0,0,0,0,0,0,0,0,0,0,0,0,0,0,0,0,0,0,0,0,0,0,0,0,0,0,0,0,0,0,0,0,0,0,0,0,0,0,0,0,0,0,0,0,0,0,0,0,0,0,0,0,0,0,0,0,0,0,0,0,0,0,0,0,0,0,0,0,0,0,0],"trees":[{"base_weights":[1.1108896E0,6.967563E-1,1.1368283E-1,8.768381E-1,-4.9190202E-1,9.373546E-1,2.5326216E-1,-1.1425362E0,4.22198E-1,1.0771376E0,8.251711E-1,-9.654919E-1,9.4498026E-1,2.3378943E-1,-1.6385511E0,7.956875E-1,-6.561934E-1,1.0374873E0,1.1122181E0,1.0664672E0,7.447856E-1,8.862381E-1,-2.09737E0,5.346282E-1,1.1234406E0,4.4690442E-1,-5.772391E-1,1.7280424E-1,-2.1631987E0,8.3860564E-1,-3.1638503E-1,9.7095424E-1,-9.7162265E-1,1.1357971E-1,1.0175361E-1,1.128814E-1,1.02073744E-1,1.0061908E-1,1.1362641E-1,1.1360911E-1,6.925252E-2,1.0998603E-1,-2.9134244E-2,1.1106167E-1,-2.3104237E-1,9.784586E-2,-2.2569383E-3,9.591706E-2,1.13357365E-1,5.0391156E-2,-1.8169917E-1,-1.1687298E-1,6.2040735E-2,-1.1189184E-1,9.292331E-2,-2.3989831E-1,-1.08648E-2,9.3599565E-2,2.851072E-2,5.099685E-2,-7.849369E-2,9.280849E-3,1.0404909E-1,-4.725587E-2,-2.5284705E-1],"categories":[],"categories_nodes":[],"categories_segments":[],"categories_sizes":[],"default_left":[0,0,0,0,0,0,0,0,0,0,0,0,0,0,0,0,0,0,0,0,0,0,0,0,0,0,0,0,0,0,0,0,0,0,0,0,0,0,0,0,0,0,0,0,0,0,0,0,0,0,0,0,0,0,0,0,0,0,0,0,0,0,0,0,0],"id":0,"left_children":[1,3,-1,5,7,9,11,13,15,17,19,21,23,25,27,29,31,33,35,37,39,41,43,45,47,49,51,53,55,57,59,61,63,-1,-1,-1,-1,-1,-1,-1,-1,-1,-1,-1,-1,-1,-1,-1,-1,-1,-1,-1,-1,-1,-1,-1,-1,-1,-1,-1,-1,-1,-1,-1,-1],"loss_changes":[7.226125E3,8.489303E3,0E0,1.2994141E3,3.104011E3,4.9139648E2,2.5705012E3,2.0816733E3,8.747454E2,1.8282227E1,3.3709863E2,2.3159414E3,1.4183057E2,1.4000645E2,2.1302222E3,7.7233154E1,2.8780334E2,1.1740234E1,1.0082031E1,1.7161133E1,2.6649756E2,1.05862335E2,4.7110645E2,1.462738E2,1.1676025E0,8.36222E1,1.2022059E2,4.9376776E2,8.416343E2,8.34469E1,2.3883156E1,5.475708E0,3.6293433E2,0E0,0E0,0E0,0E0,0E0,0E0,0E0,0E0,0E0,0E0,0E0,0E0,0E0,0E0,0E0,0E0,0E0,0E0,0E0,0E0,0E0,0E0,0E0,0E0,0E0,0E0,0E0,0E0,0E0,0E0,0E0,0E0],"parents":[2147483647,0,0,1,1,3,3,4,4,5,5,6,6,7,7,8,8,9,9,10,10,11,11,12,12,13,13,14,14,15,15,16,16,17,17,18,18,19,19,20,20,21,21,22,22,23,23,24,24,25,25,26,26,27,27,28,28,29,29,30,30,31,31,32,32],"right_children":[2,4,-1,6,8,10,12,14,16,18,20,22,24,26,28,30,32,34,36,38,40,42,44,46,48,50,52,54,56,58,60,62,64,-1,-1,-1,-1,-1,-1,-1,-1,-1,-1,-1,-1,-1,-1,-1,-1,-1,-1,-1,-1,-1,-1,-1,-1,-1,-1,-1,-1,-1,-1,-1,-1],"split_conditions":[-2.8958793E0,1.3621103E0,1.1368283E-1,4.404413E0,4.534119E-1,3.848101E-2,-3.003778E-1,1.5456091E0,2.9732122E-3,-5.388243E-1,7.0055056E-4,1.9190147E0,1.3375914E0,-8.653331E-2,-2.9234284E-1,2.4175026E0,4.2539266E-1,-2.52902E-1,1.3167591E0,1.3449471E0,-2.52902E-1,1.1722037E0,-2.52902E-1,1.167058E0,1.3449471E0,3.2474634E-1,-2.3316891E-1,3.0392313E0,-4.8337206E-1,1.2043572E-4,-1.8531445E-1,1.0085509E0,1.2017543E-2,1.1357971E-1,1.0175361E-1,1.128814E-1,1.02073744E-1,1.0061908E-1,1.1362641E-1,1.1360911E-1,6.925252E-2,1.0998603E-1,-2.9134244E-2,1.1106167E-1,-2.3104237E-1,9.784586E-2,-2.2569383E-3,9.591706E-2,1.13357365E-1,5.0391156E-2,-1.8169917E-1,-1.1687298E-1,6.2040735E-2,-1.1189184E-1,9.292331E-2,-2.3989831E-1,-1.08648E-2,9.3599565E-2,2.851072E-2,5.099685E-2,-7.849369E-2,9.280849E-3,1.0404909E-1,-4.725587E-2,-2.5284705E-1],"split_indices":[37,32,0,2,7,16,33,16,36,3,36,16,32,23,2,0,16,31,0,32,31,16,31,0,32,30,15,16,5,36,31,0,36,0,0,0,0,0,0,0,0,0,0,0,0,0,0,0,0,0,0,0,0,0,0,0,0,0,0,0,0,0,0,0,0],"split_type":[0,0,0,0,0,0,0,0,0,0,0,0,0,0,0,0,0,0,0,0,0,0,0,0,0,0,0,0,0,0,0,0,0,0,0,0,0,0,0,0,0,0,0,0,0,0,0,0,0,0,0,0,0,0,0,0,0,0,0,0,0,0,0,0,0],"sum_hessian":[6.727721E5,3.9656293E4,6.331159E5,3.443904E4,5.2172534E3,3.1392016E4,3.0470247E3,3.0477144E3,2.169539E3,1.3972896E4,1.741912E4,1.1030825E3,1.9439421E3,8.075315E2,2.2401829E3,1.61163E3,5.5790894E2,6.5735757E3,7.399321E3,4.349825E3,1.3069294E4,4.185538E2,6.845286E2,5.9039105E2,1.353551E3,6.3984705E2,1.6768445E2,5.0327777E2,1.736905E3,1.5519805E3,5.964954E1,9.025396E1,4.6765497E2,1.0995587E3,5.474017E3,6.2535063E3,1.1458148E3,2.3423738E3,2.0074513E3,1.5373647E3,1.1531929E4,3.543398E2,6.421399E1,4.236832E1,6.4216034E2,3.2820584E2,2.6218524E2,8.420134E1,1.2693496E3,6.248891E2,1.4957912E1,1.12263954E2,5.5420494E1,1.8569493E2,3.1758282E2,1.5579446E3,1.7896048E2,1.3191758E3,2.328047E2,2.1551756E1,3.8097782E1,6.7937374E0,8.346022E1,3.551208E2,1.12534164E2],"tree_param":{"num_deleted":"0","num_feature":"39","num_nodes":"65","size_leaf_vector":"1"}},{"base_weights":[1.0942845E0,6.6532195E-1,1.1221246E-1,8.4781563E-1,-4.1668174E-1,9.1028535E-1,2.3926914E-1,-9.299735E-1,3.9562038E-1,1.0580113E0,7.9403776E-1,-7.921869E-1,9.185385E-1,3.2651708E-1,-1.2601993E0,7.640397E-1,-5.556099E-1,1.0157518E0,1.0956194E0,1.0466185E0,7.1197253E-1,8.576007E-1,-1.5993596E0,5.031813E-1,1.1077145E0,4.31392E-1,-1.0325968E0,1.2981232E-1,-1.5958539E0,1.0542946E0,5.833288E-1,9.4590163E-1,-8.06896E-1,1.1210262E-1,9.945827E-2,1.1134821E-1,9.979911E-2,9.8258466E-2,1.1215235E-1,1.12133935E-1,6.5915175E-2,1.08239256E-1,-2.5670543E-2,1.2494772E-2,-1.874947E-1,9.534042E-2,-2.0284085E-3,9.333827E-2,1.1186254E-1,8.369863E-2,9.885226E-3,-2.3463908E-1,3.5378687E-2,-9.205907E-2,9.01809E-2,-2.8369433E-1,-1.3022262E-1,1.1040886E-2,1.09768964E-1,6.457808E-2,-3.7027676E-2,-4.397299E-2,9.894442E-2,-1.8844001E-1,-3.615649E-2],"categories":[],"categories_nodes":[],"categories_segments":[],"categories_sizes":[],"default_left":[0,0,0,0,0,0,0,0,0,0,0,0,0,0,0,0,0,0,0,0,0,0,0,0,0,0,0,0,0,0,0,0,0,0,0,0,0,0,0,0,0,0,0,0,0,0,0,0,0,0,0,0,0,0,0,0,0,0,0,0,0,0,0,0,0],"id":1,"left_children":[1,3,-1,5,7,9,11,13,15,17,19,21,23,25,27,29,31,33,35,37,39,41,43,45,47,49,51,53,55,57,59,61,63,-1,-1,-1,-1,-1,-1,-1,-1,-1,-1,-1,-1,-1,-1,-1,-1,-1,-1,-1,-1,-1,-1,-1,-1,-1,-1,-1,-1,-1,-1,-1,-1],"loss_changes":[7.3751875E3,7.4335684E3,0E0,1.2243379E3,2.2658755E3,5.0082422E2,2.1027688E3,1.3820671E3,7.380065E2,1.9328125E1,3.3820215E2,1.5884574E3,1.4161584E2,9.93386E1,1.2305742E3,7.898151E1,2.2268039E2,1.2412109E1,1.0734863E1,1.8121582E1,2.6620215E2,9.851614E1,3.8068542E2,1.3389285E2,1.3189697E0,8.688687E1,9.189493E1,4.1752026E2,7.704121E2,2.3677856E1,5.6069855E1,5.5502167E0,2.4134216E2,0E0,0E0,0E0,0E0,0E0,0E0,0E0,0E0,0E0,0E0,0E0,0E0,0E0,0E0,0E0,0E0,0E0,0E0,0E0,0E0,0E0,0E0,0E0,0E0,0E0,0E0,0E0,0E0,0E0,0E0,0E0,0E0],"parents":[2147483647,0,0,1,1,3,3,4,4,5,5,6,6,7,7,8,8,9,9,10,10,11,11,12,12,13,13,14,14,15,15,16,16,17,17,18,18,19,19,20,20,21,21,22,22,23,23,24,24,25,25,26,26,27,27,28,28,29,29,30,30,31,31,32,32],"right_children":[2,4,-1,6,8,10,12,14,16,18,20,22,24,26,28,30,32,34,36,38,40,42,44,46,48,50,52,54,56,58,60,62,64,-1,-1,-1,-1,-1,-1,-1,-1,-1,-1,-1,-1,-1,-1,-1,-1,-1,-1,-1,-1,-1,-1,-1,-1,-1,-1,-1,-1,-1,-1,-1,-1],"split_conditions":[-2.8958793E0,1.3621103E0,1.1221246E-1,4.404413E0,4.534119E-1,3.848101E-2,-3.003778E-1,1.3215659E0,2.9732122E-3,-5.388243E-1,7.0055056E-4,1.9190147E0,1.3375914E0,5.05376E-1,-2.9234284E-1,-3.8546315E-1,4.2539266E-1,-2.52902E-1,1.3167591E0,1.3449471E0,-2.52902E-1,1.1722037E0,-2.9547848E-3,1.167058E0,1.3449471E0,1.0282756E0,1.5234641E0,3.0392313E0,-1.1580223E-1,2.6658256E0,2.4175026E0,1.5322392E0,6.6505045E-1,1.1210262E-1,9.945827E-2,1.1134821E-1,9.979911E-2,9.8258466E-2,1.1215235E-1,1.12133935E-1,6.5915175E-2,1.08239256E-1,-2.5670543E-2,1.2494772E-2,-1.874947E-1,9.534042E-2,-2.0284085E-3,9.333827E-2,1.1186254E-1,8.369863E-2,9.885226E-3,-2.3463908E-1,3.5378687E-2,-9.205907E-2,9.01809E-2,-2.8369433E-1,-1.3022262E-1,1.1040886E-2,1.09768964E-1,6.457808E-2,-3.7027676E-2,-4.397299E-2,9.894442E-2,-1.8844001E-1,-3.615649E-2],"split_indices":[37,32,0,2,7,16,33,16,36,3,36,16,32,1,2,2,16,31,0,32,31,16,36,0,32,15,33,16,2,16,0,34,2,0,0,0,0,0,0,0,0,0,0,0,0,0,0,0,0,0,0,0,0,0,0,0,0,0,0,0,0,0,0,0,0],"split_type":[0,0,0,0,0,0,0,0,0,0,0,0,0,0,0,0,0,0,0,0,0,0,0,0,0,0,0,0,0,0,0,0,0,0,0,0,0,0,0,0,0,0,0,0,0,0,0,0,0,0,0,0,0,0,0,0,0,0,0,0,0,0,0,0,0],"sum_hessian":[6.176312E5,3.764338E4,5.799878E5,3.2210828E4,5.43255E3,2.9211639E4,2.999188E3,3.3288882E3,2.1036614E3,1.2860539E4,1.63511E4,1.1908069E3,1.8083811E3,6.928071E2,2.636081E3,1.5165038E3,5.8715765E2,6.06898E3,6.7915596E3,4.0068965E3,1.2344203E4,3.911892E2,7.996177E2,5.670402E2,1.241341E3,6.438106E2,4.8996525E1,5.128563E2,2.1232249E3,5.800319E2,9.364719E2,8.378031E1,5.0337735E2,1.0073705E3,5.0616094E3,5.732333E3,1.0592266E3,2.1678196E3,1.839077E3,1.4084376E3,1.0935766E4,3.2554486E2,6.564436E1,1.10263374E2,6.893543E2,3.0440536E2,2.6263483E2,7.8212715E1,1.1631282E3,2.893623E2,3.544483E2,2.4801321E1,2.4195202E1,2.1717235E2,2.95684E2,4.0456607E2,1.7186587E3,2.5650557E1,5.5438135E2,8.7921466E2,5.725727E1,2.2753146E0,8.1505E1,1.4626042E2,3.571169E2],"tree_param":{"num_deleted":"0","num_feature":"39","num_nodes":"65","size_leaf_vector":"1"}},{"base_weights":[1.0792477E0,6.3497776E-1,1.10916115E-1,8.1943655E-1,-3.5860786E-1,8.836715E-1,2.2547767E-1,-7.7704364E-1,3.7023044E-1,1.0400312E0,7.6324457E-1,-6.6639E-1,8.927805E-1,7.352946E-2,-1.1041669E0,-3.4262493E-1,8.107785E-1,9.9486214E-1,1.0804935E0,1.0278307E0,6.79578E-1,1.0662754E0,-1.2062135E0,4.7290736E-1,1.0935804E0,-2.138475E-1,7.483853E-1,2.0796576E-1,-1.3871293E0,-6.520281E-1,5.207075E-1,8.6621773E-1,-2.828092E-1,1.1079844E-1,9.7234845E-2,1.0997988E-1,9.759838E-2,9.596362E-2,1.1085172E-1,1.10831976E-1,6.2628984E-2,8.369212E-2,1.1056129E-1,-1.4204647E-1,5.4074865E-2,8.6202845E-2,-1.0716646E-2,9.080832E-2,1.10538006E-1,2.8484792E-2,-1.1267065E-1,4.272303E-2,9.199524E-2,-8.1204794E-2,8.747626E-2,9.5703915E-2,-1.488123E-1,-2.1913212E-2,-1.6275501E-1,9.0840556E-2,3.5336893E-2,1.0361431E-1,6.740614E-2,-1.5865942E-2,-3.8539454E-1],"categories":[],"categories_nodes":[],"categories_segments":[],"categories_sizes":[],"default_left":[0,0,0,0,0,0,0,0,0,0,0,0,0,0,0,0,0,0,0,0,0,0,0,0,0,0,0,0,0,0,0,0,0,0,0,0,0,0,0,0,0,0,0,0,0,0,0,0,0,0,0,0,0,0,0,0,0,0,0,0,0,0,0,0,0],"id":2,"left_children":[1,3,-1,5,7,9,11,13,15,17,19,21,23,25,27,29,31,33,35,37,39,41,43,45,47,49,51,53,55,57,59,61,63,-1,-1,-1,-1,-1,-1,-1,-1,-1,-1,-1,-1,-1,-1,-1,-1,-1,-1,-1,-1,-1,-1,-1,-1,-1,-1,-1,-1,-1,-1,-1,-1],"loss_changes":[7.5258125E3,6.548672E3,0E0,1.1495566E3,1.7066875E3,5.1126758E2,1.7517163E3,9.8919727E2,6.413712E2,2.0544922E1,3.39458E2,1.1796683E3,1.4141858E2,1.918403E2,9.5356665E2,2.0880429E2,7.675519E1,1.3189453E1,1.1491211E1,1.9238037E1,2.660957E2,1.779602E0,3.604773E2,1.234259E2,1.4871826E0,3.1623676E2,1.5883484E1,3.110829E2,5.014746E2,2.4245192E2,1.3073151E1,3.852765E1,2.6718065E1,0E0,0E0,0E0,0E0,0E0,0E0,0E0,0E0,0E0,0E0,0E0,0E0,0E0,0E0,0E0,0E0,0E0,0E0,0E0,0E0,0E0,0E0,0E0,0E0,0E0,0E0,0E0,0E0,0E0,0E0,0E0,0E0],"parents":[2147483647,0,0,1,1,3,3,4,4,5,5,6,6,7,7,8,8,9,9,10,10,11,11,12,12,13,13,14,14,15,15,16,16,17,17,18,18,19,19,20,20,21,21,22,22,23,23,24,24,25,25,26,26,27,27,28,28,29,29,30,30,31,31,32,32],"right_children":[2,4,-1,6,8,10,12,14,16,18,20,22,24,26,28,30,32,34,36,38,40,42,44,46,48,50,52,54,56,58,60,62,64,-1,-1,-1,-1,-1,-1,-1,-1,-1,-1,-1,-1,-1,-1,-1,-1,-1,-1,-1,-1,-1,-1,-1,-1,-1,-1,-1,-1,-1,-1,-1,-1],"split_conditions":[-2.8958793E0,1.3621103E0,1.10916115E-1,4.404413E0,4.534119E-1,3.848101E-2,-3.003778E-1,1.9190147E0,-5.376256E-1,-5.388243E-1,7.0055056E-4,1.1722037E0,1.3375914E0,-4.8337206E-1,-2.9234284E-1,-4.8337206E-1,2.4175026E0,-2.52902E-1,1.3167591E0,1.3449471E0,-2.52902E-1,-2.6248974E-1,-4.8337206E-1,1.3167591E0,1.3449471E0,4.2539266E-1,3.326812E-1,3.0392313E0,9.072825E-1,9.0916E-3,1.1722037E0,4.0945455E-1,4.8653636E0,1.1079844E-1,9.7234845E-2,1.0997988E-1,9.759838E-2,9.596362E-2,1.1085172E-1,1.10831976E-1,6.2628984E-2,8.369212E-2,1.1056129E-1,-1.4204647E-1,5.4074865E-2,8.6202845E-2,-1.0716646E-2,9.080832E-2,1.10538006E-1,2.8484792E-2,-1.1267065E-1,4.272303E-2,9.199524E-2,-8.1204794E-2,8.747626E-2,9.5703915E-2,-1.488123E-1,-2.1913212E-2,-1.6275501E-1,9.0840556E-2,3.5336893E-2,1.0361431E-1,6.740614E-2,-1.5865942E-2,-3.8539454E-1],"split_indices":[37,32,0,2,7,16,33,16,3,3,36,16,32,5,2,5,0,31,0,32,31,6,5,0,32,16,22,16,0,36,16,2,34,0,0,0,0,0,0,0,0,0,0,0,0,0,0,0,0,0,0,0,0,0,0,0,0,0,0,0,0,0,0,0,0],"split_type":[0,0,0,0,0,0,0,0,0,0,0,0,0,0,0,0,0,0,0,0,0,0,0,0,0,0,0,0,0,0,0,0,0,0,0,0,0,0,0,0,0,0,0,0,0,0,0,0,0,0,0,0,0,0,0,0,0,0,0,0,0,0,0,0,0],"sum_hessian":[5.663421E5,3.572867E4,5.3061344E5,3.0134406E4,5.5942666E3,2.7193064E4,2.94134E3,3.553874E3,2.0403925E3,1.1828091E4,1.5364974E4,1.2588524E3,1.6824878E3,9.873583E2,2.5665156E3,7.794227E2,1.2609697E3,5.601063E3,6.227028E3,3.688674E3,1.16763E4,2.9880527E2,9.600472E2,5.454031E2,1.1370846E3,6.9295654E2,2.9440173E2,4.5533496E2,2.1111807E3,5.739676E2,2.0545514E2,1.2003273E3,6.064245E1,9.2169617E2,4.679367E3,5.2480654E3,9.789628E2,2.0060742E3,1.6825999E3,1.2886202E3,1.038768E4,4.7007458E1,2.517978E2,8.5533405E2,1.0471312E2,3.2613885E2,2.1926425E2,7.2667786E1,1.0644169E3,4.4858322E2,2.4437334E2,1.0372669E2,1.9067505E2,1.7990797E2,2.7542697E2,8.684899E1,2.0243318E3,3.9839926E2,1.7556834E2,6.060771E1,1.4484743E2,6.346815E2,5.656458E2,5.9614395E1,1.0280533E0],"tree_param":{"num_deleted":"0","num_feature":"39","num_nodes":"65","size_leaf_vector":"1"}},{"base_weights":[1.0655206E0,6.055794E-1,1.0977005E-1,7.9148066E-1,-3.1163013E-1,9.914493E-1,5.944473E-1,-5.774815E-1,5.779787E-1,1.0244054E0,8.5987943E-1,4.4055378E-1,1.0605923E0,3.6717987E-1,-7.7178276E-1,8.850515E-1,-6.1654348E-2,9.7570395E-1,1.0677103E0,1.09593205E-1,8.181193E-1,5.8466256E-1,-8.5801476E-1,8.4258133E-1,1.0959082E0,7.934471E-1,8.206116E-2,1.3737124E-1,-9.7079057E-1,1.0472896E0,6.867226E-1,-2.5636998E-1,6.341135E-1,1.0965659E-1,9.5218115E-2,1.0879796E-1,9.544723E-2,6.818866E-2,9.603814E-2,1.09893E-1,5.2940097E-2,-1.0688291E-1,5.7756472E-2,1.0240209E-1,6.968829E-2,3.6327295E-2,1.0962285E-1,9.233781E-2,-8.4084265E-2,-5.010053E-1,1.4645849E-2,-8.000289E-2,7.65292E-2,-1.1527101E-1,3.093708E-2,2.9246492E-2,1.0607987E-1,3.6387008E-2,7.625126E-2,9.082424E-2,-4.7133766E-2,7.899931E-2,-4.093007E-3],"categories":[],"categories_nodes":[],"categories_segments":[],"categories_sizes":[],"default_left":[0,0,0,0,0,0,0,0,0,0,0,0,0,0,0,0,0,0,0,0,0,0,0,0,0,0,0,0,0,0,0,0,0,0,0,0,0,0,0,0,0,0,0,0,0,0,0,0,0,0,0,0,0,0,0,0,0,0,0,0,0,0,0],"id":3,"left_children":[1,3,-1,5,7,9,11,13,15,17,19,21,23,25,27,29,31,33,35,-1,37,39,41,43,45,47,49,51,53,55,57,59,61,-1,-1,-1,-1,-1,-1,-1,-1,-1,-1,-1,-1,-1,-1,-1,-1,-1,-1,-1,-1,-1,-1,-1,-1,-1,-1,-1,-1,-1,-1],"loss_changes":[7.6779375E3,5.785091E3,0E0,1.110877E3,1.3527068E3,5.981836E1,1.0190176E3,8.0845496E2,2.5856592E2,2.255664E1,2.680664E1,2.0002117E3,2.6229004E1,9.130775E1,6.609248E2,2.7895813E1,5.812531E1,1.3961914E1,1.2532227E1,0E0,4.5700928E1,2.727854E2,3.2378302E2,1.2397369E1,3.125E-1,6.473596E1,1.4882391E2,3.8718683E2,6.9819214E2,4.658325E0,9.584854E0,8.4296974E1,9.906815E0,0E0,0E0,0E0,0E0,0E0,0E0,0E0,0E0,0E0,0E0,0E0,0E0,0E0,0E0,0E0,0E0,0E0,0E0,0E0,0E0,0E0,0E0,0E0,0E0,0E0,0E0,0E0,0E0,0E0,0E0],"parents":[2147483647,0,0,1,1,3,3,4,4,5,5,6,6,7,7,8,8,9,9,10,10,11,11,12,12,13,13,14,14,15,15,16,16,17,17,18,18,20,20,21,21,22,22,23,23,24,24,25,25,26,26,27,27,28,28,29,29,30,30,31,31,32,32],"right_children":[2,4,-1,6,8,10,12,14,16,18,20,22,24,26,28,30,32,34,36,-1,38,40,42,44,46,48,50,52,54,56,58,60,62,-1,-1,-1,-1,-1,-1,-1,-1,-1,-1,-1,-1,-1,-1,-1,-1,-1,-1,-1,-1,-1,-1,-1,-1,-1,-1,-1,-1,-1,-1],"split_conditions":[-2.8958793E0,1.3621103E0,1.0977005E-1,4.2539266E-1,8.407853E-1,3.848101E-2,1.3375914E0,7.9879814E-1,7.0055056E-4,-5.388243E-1,-2.52902E-1,5.248316E0,1.3449471E0,7.237841E-2,-2.9234284E-1,1.1500521E0,3.793311E0,-2.52902E-1,1.3167591E0,1.09593205E-1,-4.8337206E-1,-2.52902E-1,4.534119E-1,-1.1011567E-3,-5.4481363E-1,8.618172E-2,-5.055942E-1,1.9419814E0,-4.8337206E-1,-4.1463968E-1,-3.0724576E-3,4.2539266E-1,3.1372757E0,1.0965659E-1,9.5218115E-2,1.0879796E-1,9.544723E-2,6.818866E-2,9.603814E-2,1.09893E-1,5.2940097E-2,-1.0688291E-1,5.7756472E-2,1.0240209E-1,6.968829E-2,3.6327295E-2,1.0962285E-1,9.233781E-2,-8.4084265E-2,-5.010053E-1,1.4645849E-2,-8.000289E-2,7.65292E-2,-1.1527101E-1,3.093708E-2,2.9246492E-2,1.0607987E-1,3.6387008E-2,7.625126E-2,9.082424E-2,-4.7133766E-2,7.899931E-2,-4.093007E-3],"split_indices":[37,32,0,16,7,16,32,16,36,3,31,2,32,2,2,2,2,31,0,0,5,31,7,36,3,30,22,0,5,30,36,16,32,0,0,0,0,0,0,0,0,0,0,0,0,0,0,0,0,0,0,0,0,0,0,0,0,0,0,0,0,0,0],"split_type":[0,0,0,0,0,0,0,0,0,0,0,0,0,0,0,0,0,0,0,0,0,0,0,0,0,0,0,0,0,0,0,0,0,0,0,0,0,0,0,0,0,0,0,0,0,0,0,0,0,0,0,0,0,0,0,0,0,0,0,0,0,0,0],"sum_hessian":[5.1880034E5,3.392562E4,4.8487475E5,2.8208434E4,5.717188E3,1.3997936E4,1.4210497E4,4.402032E3,1.315156E3,1.118859E4,2.8093457E3,1.0684916E4,3.5255818E3,7.508125E2,3.6512195E3,8.8831366E2,4.2684232E2,5.2772363E3,5.9113535E3,4.184994E2,2.3908464E3,9.618097E3,1.0668193E3,4.9496194E2,3.0306199E3,3.0020605E2,4.5060645E2,6.5575507E2,2.9954646E3,4.8625995E2,4.020537E2,3.3400122E2,9.284111E1,8.523222E2,4.424914E3,5.006578E3,9.0477545E2,1.2242634E3,1.166583E3,9.31415E2,8.686682E3,9.3044006E2,1.3637933E2,2.1775786E2,2.772041E2,1.8201209E0,3.0287998E3,2.784995E2,2.1706549E1,4.6683116E0,4.4593814E2,2.6294296E2,3.928121E2,2.6228408E3,3.726238E2,8.947759E0,4.773122E2,7.75414E1,3.245123E2,5.1541904E1,2.8245932E2,7.528596E1,1.7555155E1],"tree_param":{"num_deleted":"0","num_feature":"39","num_nodes":"63","size_leaf_vector":"1"}},{"base_weights":[1.0528637E0,5.767936E-1,1.087543E-1,7.6362896E-1,-2.7289662E-1,9.402887E-1,5.2738106E-1,-4.9911422E-1,5.4806125E-1,1.0080804E0,7.9617107E-1,3.2662097E-1,1.0467603E0,-6.432443E-1,4.4839206E-1,8.597583E-1,-5.368608E-2,9.558501E-1,1.0549006E0,6.874865E-1,9.2785317E-1,4.968254E-1,-7.5720406E-1,8.106158E-1,1.0851154E0,2.2123009E-1,-8.3091587E-1,6.083591E-1,-3.7153843E-1,1.0321314E0,6.5542406E-1,-2.4578534E-1,6.077383E-1,1.08629405E-1,9.307807E-2,1.07693546E-1,9.332471E-2,1.0863029E-1,5.924646E-2,8.7872736E-2,1.0133125E-1,5.9714623E-2,5.235423E-3,-9.238013E-2,5.3981163E-2,1.0053857E-1,6.533074E-2,3.4658253E-2,1.08546965E-1,9.378577E-2,-2.6576659E-3,7.7311955E-2,-9.022516E-2,4.2430177E-2,9.471165E-2,-1.4255796E-1,9.7482465E-3,1.0505579E-1,3.6327556E-2,7.237183E-2,2.9462788E-2,-2.1452804E-1,-1.1836939E-2,1.562856E-2,8.69857E-2],"categories":[],"categories_nodes":[],"categories_segments":[],"categories_sizes":[],"default_left":[0,0,0,0,0,0,0,0,0,0,0,0,0,0,0,0,0,0,0,0,0,0,0,0,0,0,0,0,0,0,0,0,0,0,0,0,0,0,0,0,0,0,0,0,0,0,0,0,0,0,0,0,0,0,0,0,0,0,0,0,0,0,0,0,0],"id":4,"left_children":[1,3,-1,5,7,9,11,13,15,17,19,21,23,25,27,29,31,33,35,37,39,41,43,45,47,49,51,53,55,57,59,61,63,-1,-1,-1,-1,-1,-1,-1,-1,-1,-1,-1,-1,-1,-1,-1,-1,-1,-1,-1,-1,-1,-1,-1,-1,-1,-1,-1,-1,-1,-1,-1,-1],"loss_changes":[7.8393125E3,5.1191836E3,0E0,1.1027031E3,1.0798279E3,1.4694531E2,1.1791157E3,6.227113E2,2.3566821E2,2.4132812E1,6.866846E1,1.5055815E3,2.7677734E1,6.4205566E2,7.9231636E1,2.8473755E1,5.4734962E1,1.4915527E1,1.3501465E1,1.0004028E2,8.290283E0,3.1444568E2,2.3988379E2,1.2962372E1,3.3276367E-1,1.2548702E2,3.7268066E2,3.104776E1,4.9058617E1,5.129669E0,9.185608E0,8.0493095E1,1.1339878E1,0E0,0E0,0E0,0E0,0E0,0E0,0E0,0E0,0E0,0E0,0E0,0E0,0E0,0E0,0E0,0E0,0E0,0E0,0E0,0E0,0E0,0E0,0E0,0E0,0E0,0E0,0E0,0E0,0E0,0E0,0E0,0E0],"parents":[2147483647,0,0,1,1,3,3,4,4,5,5,6,6,7,7,8,8,9,9,10,10,11,11,12,12,13,13,14,14,15,15,16,16,17,17,18,18,19,19,20,20,21,21,22,22,23,23,24,24,25,25,26,26,27,27,28,28,29,29,30,30,31,31,32,32],"right_children":[2,4,-1,6,8,10,12,14,16,18,20,22,24,26,28,30,32,34,36,38,40,42,44,46,48,50,52,54,56,58,60,62,64,-1,-1,-1,-1,-1,-1,-1,-1,-1,-1,-1,-1,-1,-1,-1,-1,-1,-1,-1,-1,-1,-1,-1,-1,-1,-1,-1,-1,-1,-1,-1,-1],"split_conditions":[-2.8958793E0,1.3621103E0,1.087543E-1,9.108198E-1,8.407853E-1,3.848101E-2,1.3375914E0,-4.8337206E-1,7.0055056E-4,-5.388243E-1,-4.8337206E-1,5.248316E0,1.3449471E0,-2.8582574E-3,2.337889E0,1.1500521E0,-2.3316891E-1,-2.52902E-1,1.3167591E0,-2.52902E-1,-2.2418998E-1,2.9397082E0,4.534119E-1,-1.1011567E-3,-5.4481363E-1,-2.9234284E-1,3.848101E-2,-2.2418998E-1,4.8653636E0,2.7102017E0,-2.7078983E-1,-5.443058E-1,9.463514E-1,1.08629405E-1,9.307807E-2,1.07693546E-1,9.332471E-2,1.0863029E-1,5.924646E-2,8.7872736E-2,1.0133125E-1,5.9714623E-2,5.235423E-3,-9.238013E-2,5.3981163E-2,1.0053857E-1,6.533074E-2,3.4658253E-2,1.08546965E-1,9.378577E-2,-2.6576659E-3,7.7311955E-2,-9.022516E-2,4.2430177E-2,9.471165E-2,-1.4255796E-1,9.7482465E-3,1.0505579E-1,3.6327556E-2,7.237183E-2,2.9462788E-2,-2.1452804E-1,-1.1836939E-2,1.562856E-2,8.69857E-2],"split_indices":[37,32,0,16,7,16,32,5,36,3,5,2,32,36,33,2,15,31,0,31,5,2,7,36,3,2,16,5,34,15,3,3,2,0,0,0,0,0,0,0,0,0,0,0,0,0,0,0,0,0,0,0,0,0,0,0,0,0,0,0,0,0,0,0,0],"split_type":[0,0,0,0,0,0,0,0,0,0,0,0,0,0,0,0,0,0,0,0,0,0,0,0,0,0,0,0,0,0,0,0,0,0,0,0,0,0,0,0,0,0,0,0,0,0,0,0,0,0,0,0,0,0,0,0,0,0,0,0,0,0,0,0,0],"sum_hessian":[4.748648E5,3.2244064E4,4.4262075E5,2.6432104E4,5.8119595E3,1.5121603E4,1.1310502E4,4.55673E3,1.2552295E3,1.0279995E4,4.8416074E3,8.1585405E3,3.1519612E3,3.9553777E3,6.013521E2,8.2662177E2,4.2860776E2,4.8693857E3,5.4106094E3,2.6558267E3,2.1857808E3,7.051682E3,1.1068582E3,4.4350717E2,2.708454E3,7.054898E2,3.249888E3,5.0339804E2,9.7954056E1,4.4618018E2,3.8044162E2,3.3262964E2,9.597812E1,7.781415E2,4.0912444E3,4.574236E3,8.3637335E2,5.0901376E2,2.146813E3,1.3950984E3,7.906824E2,5.7528687E3,1.2988136E3,9.811239E2,1.2573426E2,1.9575E2,2.4775717E2,1.7678969E0,2.706686E3,1.805567E2,5.249331E2,1.3795834E2,3.1119297E3,3.2763586E2,1.7576216E2,2.9536512E1,6.841754E1,4.3366248E2,1.2517699E1,3.1904456E2,6.139706E1,1.9914272E1,3.1271536E2,3.584233E1,6.013579E1],"tree_param":{"num_deleted":"0","num_feature":"39","num_nodes":"65","size_leaf_vector":"1"}},{"base_weights":[1.0410882E0,5.4860693E-1,1.0785214E-1,7.359797E-1,-2.4010761E-1,9.5415866E-1,5.346767E-1,-6.470337E-1,1.322244E-1,9.9223226E-1,8.072582E-1,3.859076E-1,1.0341132E0,3.453197E-1,-7.77426E-1,-3.3823305E-1,5.793125E-1,9.3619084E-1,1.0429198E0,1.0764068E-1,7.6204675E-1,5.4732317E-1,-4.797388E-1,7.889785E-1,1.0757238E0,4.7461608E-1,-1.998272E0,7.8697525E-2,-9.0268034E-1,-1.5687823E-1,-1.270309E0,9.771314E-1,3.6715734E-1,1.0771463E-1,9.094758E-2,1.06692076E-1,9.1212794E-2,6.2188674E-2,9.1607355E-2,1.0818719E-1,4.9287442E-2,-7.327922E-2,5.597439E-2,9.91224E-2,6.355338E-2,3.305803E-2,1.0761E-1,8.796319E-2,1.2932665E-2,-2.8109926E-1,6.842035E-2,-7.918167E-2,6.994094E-2,-3.554459E-2,-1.0869055E-1,-3.5478033E-2,5.0858896E-2,-1.6009374E-1,4.390363E-2,1.0036645E-1,-1.8430261E-1,4.455782E-2,-5.342005E-2],"categories":[],"categories_nodes":[],"categories_segments":[],"categories_sizes":[],"default_left":[0,0,0,0,0,0,0,0,0,0,0,0,0,0,0,0,0,0,0,0,0,0,0,0,0,0,0,0,0,0,0,0,0,0,0,0,0,0,0,0,0,0,0,0,0,0,0,0,0,0,0,0,0,0,0,0,0,0,0,0,0,0,0],"id":5,"left_children":[1,3,-1,5,7,9,11,13,15,17,19,21,23,25,27,29,31,33,35,-1,37,39,41,43,45,47,49,51,53,55,57,59,61,-1,-1,-1,-1,-1,-1,-1,-1,-1,-1,-1,-1,-1,-1,-1,-1,-1,-1,-1,-1,-1,-1,-1,-1,-1,-1,-1,-1,-1,-1],"loss_changes":[8.0069375E3,4.5349785E3,0E0,1.0884971E3,8.926744E2,6.5743164E1,9.57979E2,3.6451807E2,6.474434E2,2.5850586E1,2.90448E1,1.3891499E3,2.9341309E1,1.00223114E2,2.6690942E2,2.5336359E2,1.3283698E2,1.59470215E1,1.4566406E1,0E0,4.4867798E1,2.4331763E2,4.114721E2,1.2815369E1,3.527832E-1,4.3420555E1,3.968643E1,1.7266046E2,2.184696E2,1.6570587E2,1.3870648E2,4.287738E1,7.310475E1,0E0,0E0,0E0,0E0,0E0,0E0,0E0,0E0,0E0,0E0,0E0,0E0,0E0,0E0,0E0,0E0,0E0,0E0,0E0,0E0,0E0,0E0,0E0,0E0,0E0,0E0,0E0,0E0,0E0,0E0],"parents":[2147483647,0,0,1,1,3,3,4,4,5,5,6,6,7,7,8,8,9,9,10,10,11,11,12,12,13,13,14,14,15,15,16,16,17,17,18,18,20,20,21,21,22,22,23,23,24,24,25,25,26,26,27,27,28,28,29,29,30,30,31,31,32,32],"right_children":[2,4,-1,6,8,10,12,14,16,18,20,22,24,26,28,30,32,34,36,-1,38,40,42,44,46,48,50,52,54,56,58,60,62,-1,-1,-1,-1,-1,-1,-1,-1,-1,-1,-1,-1,-1,-1,-1,-1,-1,-1,-1,-1,-1,-1,-1,-1,-1,-1,-1,-1,-1,-1],"split_conditions":[-2.8958793E0,1.3621103E0,1.0785214E-1,4.2539266E-1,6.603851E-2,3.848101E-2,1.3375914E0,4.2539266E-1,-5.376256E-1,-5.388243E-1,-2.52902E-1,4.404413E0,1.3449471E0,5.934878E0,-2.9234284E-1,-2.4032064E-1,-2.9816285E-1,-2.52902E-1,1.3167591E0,1.0764068E-1,-4.8337206E-1,-2.52902E-1,4.534119E-1,-1.1011567E-3,-5.4481363E-1,-1.7831894E-2,-2.4299696E-1,7.3977983E-1,1.6249672E0,-2.3316891E-1,1.2281587E0,2.2897203E0,4.9124413E0,1.0771463E-1,9.094758E-2,1.06692076E-1,9.1212794E-2,6.2188674E-2,9.1607355E-2,1.0818719E-1,4.9287442E-2,-7.327922E-2,5.597439E-2,9.91224E-2,6.355338E-2,3.305803E-2,1.0761E-1,8.796319E-2,1.2932665E-2,-2.8109926E-1,6.842035E-2,-7.918167E-2,6.994094E-2,-3.554459E-2,-1.0869055E-1,-3.5478033E-2,5.0858896E-2,-1.6009374E-1,4.390363E-2,1.0036645E-1,-1.8430261E-1,4.455782E-2,-5.342005E-2],"split_indices":[37,32,0,16,7,16,32,16,3,3,31,2,32,32,2,30,2,31,0,0,5,31,7,36,3,2,3,22,0,15,7,15,32,0,0,0,0,0,0,0,0,0,0,0,0,0,0,0,0,0,0,0,0,0,0,0,0,0,0,0,0,0,0],"split_type":[0,0,0,0,0,0,0,0,0,0,0,0,0,0,0,0,0,0,0,0,0,0,0,0,0,0,0,0,0,0,0,0,0,0,0,0,0,0,0,0,0,0,0,0,0,0,0,0,0,0,0,0,0,0,0,0,0,0,0,0,0,0,0],"sum_hessian":[4.3436266E5,3.068443E4,4.0367822E5,2.4794205E4,5.8902236E3,1.1896567E4,1.2897638E4,2.8140151E3,3.0762085E3,9.443302E3,2.4532659E3,9.938878E3,2.9587598E3,3.266198E2,2.4873953E3,1.4990483E3,1.5771603E3,4.494042E3,4.94926E3,3.4954962E2,2.103716E3,8.37717E3,1.5617086E3,4.322523E2,2.5265073E3,3.102981E2,1.6321722E1,3.175164E2,2.169879E3,1.2558624E3,2.4318591E2,5.4729816E2,1.029862E3,7.097734E2,3.7842686E3,4.1758184E3,7.734411E2,1.1040754E3,9.996407E2,7.726671E2,7.6045024E3,1.2561938E3,3.055148E2,1.8411832E2,2.4813397E2,1.7190955E0,2.5247883E3,1.4208658E2,1.6821152E2,1.2489743E1,3.8319786E0,1.320491E2,1.8546727E2,5.4724274E2,1.6226362E3,9.6835266E2,2.8750974E2,2.0382474E2,3.936117E1,5.428351E2,4.4630666E0,9.4789777E2,8.19643E1],"tree_param":{"num_deleted":"0","num_feature":"39","num_nodes":"63","size_leaf_vector":"1"}},{"base_weights":[1.030055E0,5.211815E-1,1.0704929E-1,7.084224E-1,-2.1204963E-1,9.3570596E-1,5.0601983E-1,-3.8522848E-1,4.9946812E-1,1.0316015E0,8.6912274E-1,3.6058927E-1,1.0218414E0,-4.986401E-1,4.2783028E-1,8.154827E-1,-3.2645002E-2,1.0589607E0,8.786198E-1,1.069684E-1,8.32353E-1,5.168096E-1,-4.1871944E-1,7.618948E-1,1.0671393E0,1.8798049E-1,-6.3116795E-1,1.9885497E-1,9.3596506E-1,1.0066844E0,6.038817E-1,-2.0269924E-1,6.13006E-1,1.06322564E-1,8.567118E-2,7.133496E-2,1.0732185E-1,7.251309E-2,9.4266325E-2,1.07321136E-1,4.6298873E-2,-6.298774E-2,5.2762683E-2,6.0213145E-2,9.71948E-2,3.1524654E-2,1.0675488E-1,8.971464E-2,-2.5433188E-3,-4.4573393E-2,-1.0531955E-1,4.144316E-2,-5.0717194E-2,9.77005E-2,-6.95435E-2,1.4745972E-2,1.0237088E-1,2.7592612E-2,6.856743E-2,8.840853E-2,-3.8068607E-2,7.662854E-2,-9.092943E-4],"categories":[],"categories_nodes":[],"categories_segments":[],"categories_sizes":[],"default_left":[0,0,0,0,0,0,0,0,0,0,0,0,0,0,0,0,0,0,0,0,0,0,0,0,0,0,0,0,0,0,0,0,0,0,0,0,0,0,0,0,0,0,0,0,0,0,0,0,0,0,0,0,0,0,0,0,0,0,0,0,0,0,0],"id":6,"left_children":[1,3,-1,5,7,9,11,13,15,17,19,21,23,25,27,29,31,33,35,-1,37,39,41,43,45,47,49,51,53,55,57,59,61,-1,-1,-1,-1,-1,-1,-1,-1,-1,-1,-1,-1,-1,-1,-1,-1,-1,-1,-1,-1,-1,-1,-1,-1,-1,-1,-1,-1,-1,-1],"loss_changes":[8.1707812E3,4.013766E3,0E0,1.070831E3,7.330524E2,6.913672E1,9.2385596E2,4.4133917E2,1.9587247E2,1.7860352E1,4.6896484E1,1.1704474E3,3.108667E1,3.8219043E2,6.80125E1,2.8957153E1,4.787671E1,2.3701172E0,2.1328125E1,0E0,6.4138916E1,2.392981E2,3.2118942E2,1.302356E1,3.7304688E-1,1.0294953E2,2.7497498E2,6.1903778E1,1.2852142E1,5.442383E0,9.182449E0,6.707152E1,8.676521E0,0E0,0E0,0E0,0E0,0E0,0E0,0E0,0E0,0E0,0E0,0E0,0E0,0E0,0E0,0E0,0E0,0E0,0E0,0E0,0E0,0E0,0E0,0E0,0E0,0E0,0E0,0E0,0E0,0E0,0E0],"parents":[2147483647,0,0,1,1,3,3,4,4,5,5,6,6,7,7,8,8,9,9,10,10,11,11,12,12,13,13,14,14,15,15,16,16,17,17,18,18,20,20,21,21,22,22,23,23,24,24,25,25,26,26,27,27,28,28,29,29,30,30,31,31,32,32],"right_children":[2,4,-1,6,8,10,12,14,16,18,20,22,24,26,28,30,32,34,36,-1,38,40,42,44,46,48,50,52,54,56,58,60,62,-1,-1,-1,-1,-1,-1,-1,-1,-1,-1,-1,-1,-1,-1,-1,-1,-1,-1,-1,-1,-1,-1,-1,-1,-1,-1,-1,-1,-1,-1],"split_conditions":[-2.8958793E0,1.3621103E0,1.0704929E-1,4.2539266E-1,8.407853E-1,7.0055056E-4,1.3375914E0,-4.8337206E-1,7.0055056E-4,1.4488482E0,-2.52902E-1,4.404413E0,1.3449471E0,-2.8582574E-3,-2.2418998E-1,1.1500521E0,3.793311E0,4.4809437E0,1.3130726E0,1.069684E-1,-4.8337206E-1,-2.52902E-1,4.534119E-1,-5.311105E-1,-5.4481363E-1,-2.9234284E-1,-1.0707378E-1,-3.0871665E-1,6.0779417E-1,-4.1463968E-1,-3.0724576E-3,4.2539266E-1,3.1372757E0,1.06322564E-1,8.567118E-2,7.133496E-2,1.0732185E-1,7.251309E-2,9.4266325E-2,1.07321136E-1,4.6298873E-2,-6.298774E-2,5.2762683E-2,6.0213145E-2,9.71948E-2,3.1524654E-2,1.0675488E-1,8.971464E-2,-2.5433188E-3,-4.4573393E-2,-1.0531955E-1,4.144316E-2,-5.0717194E-2,9.77005E-2,-6.95435E-2,1.4745972E-2,1.0237088E-1,2.7592612E-2,6.856743E-2,8.840853E-2,-3.8068607E-2,7.662854E-2,-9.092943E-4],"split_indices":[37,32,0,16,7,36,32,5,36,0,31,2,32,36,5,2,2,17,32,0,5,31,7,3,3,2,30,30,15,30,36,16,32,0,0,0,0,0,0,0,0,0,0,0,0,0,0,0,0,0,0,0,0,0,0,0,0,0,0,0,0,0,0],"split_type":[0,0,0,0,0,0,0,0,0,0,0,0,0,0,0,0,0,0,0,0,0,0,0,0,0,0,0,0,0,0,0,0,0,0,0,0,0,0,0,0,0,0,0,0,0,0,0,0,0,0,0,0,0,0,0,0,0,0,0,0,0,0,0],"sum_hessian":[3.9709597E5,2.92334E4,3.6786256E5,2.3286818E4,5.9465815E3,1.096749E4,1.2319329E4,4.7829106E3,1.1636711E3,4.488499E3,6.4789917E3,9.611237E3,2.708091E3,4.1977617E3,5.8514886E2,7.297502E2,4.3392102E2,3.8025352E3,6.8596356E2,9.9943896E2,5.4795527E3,8.006575E3,1.6046624E3,4.0452142E2,2.3035696E3,6.7907697E2,3.5186848E3,4.043378E2,1.8081105E2,3.813797E2,3.4837045E2,3.4400232E2,8.991871E1,3.7198342E3,8.2701065E1,3.7345697E2,3.1250656E2,2.7825117E3,2.697041E3,7.0449915E2,7.302076E3,1.312205E3,2.9245737E2,2.3196146E2,1.7255998E2,1.6734837E0,2.301896E3,1.5634488E2,5.227321E2,2.445998E3,1.0726868E3,3.1007364E2,9.426416E1,1.7676543E2,4.045629E0,7.597427E0,3.737823E2,7.041359E1,2.7795685E2,4.785196E1,2.9615036E2,7.195731E1,1.7961391E1],"tree_param":{"num_deleted":"0","num_feature":"39","num_nodes":"63","size_leaf_vector":"1"}},{"base_weights":[1.019587E0,4.9423245E-1,1.0633359E-1,6.808782E-1,-1.8783915E-1,9.1718525E-1,4.78023E-1,-3.3869305E-1,4.7162253E-1,9.6170753E-1,7.498174E-1,3.3632E-1,1.0100287E0,-4.3568462E-1,3.9974952E-1,7.8998625E-1,-2.8020633E-2,8.9783484E-1,1.0208776E0,6.4490753E-1,8.979146E-1,5.072351E-1,-2.8659177E-1,7.3464787E-1,1.0593985E0,2.0340565E-1,-5.5111915E-1,1.8246593E-1,9.1073775E-1,9.929448E-1,5.734162E-1,-1.7907068E-1,5.796542E-1,1.06166385E-1,8.6790524E-2,1.04943864E-1,8.699082E-2,4.764388E-2,8.7248616E-2,1.0549132E-1,8.72423E-2,3.8361844E-2,7.370818E-2,-5.4643746E-2,4.8897628E-2,9.597734E-2,5.7419267E-2,3.005602E-2,1.0598451E-1,-6.667995E-2,6.1537374E-2,2.0880222E-2,-6.504832E-2,3.856519E-2,-4.4071775E-2,9.5394656E-2,-6.1025638E-2,2.8197264E-2,1.0163601E-1,6.0664993E-2,-2.0650795E-2,1.09467E-3,-1.0334773E-1,7.329985E-2,-8.2262186E-4],"categories":[],"categories_nodes":[],"categories_segments":[],"categories_sizes":[],"default_left":[0,0,0,0,0,0,0,0,0,0,0,0,0,0,0,0,0,0,0,0,0,0,0,0,0,0,0,0,0,0,0,0,0,0,0,0,0,0,0,0,0,0,0,0,0,0,0,0,0,0,0,0,0,0,0,0,0,0,0,0,0,0,0,0,0],"id":7,"left_children":[1,3,-1,5,7,9,11,13,15,17,19,21,23,25,27,29,31,33,35,37,39,41,43,45,47,49,51,53,55,57,59,61,63,-1,-1,-1,-1,-1,-1,-1,-1,-1,-1,-1,-1,-1,-1,-1,-1,-1,-1,-1,-1,-1,-1,-1,-1,-1,-1,-1,-1,-1,-1,-1,-1],"loss_changes":[8.339781E3,3.5516597E3,0E0,1.0495537E3,5.965219E2,7.466406E1,8.8834375E2,3.4963763E2,1.7760973E2,2.927002E1,3.251831E1,9.9137195E2,3.292456E1,3.183133E2,6.278592E1,2.940564E1,4.007544E1,1.7953613E1,1.6934082E1,4.7527832E1,2.6046143E0,2.0730579E2,4.043723E2,1.3179977E1,3.9282227E-1,2.3723766E2,2.760172E2,5.0701523E1,1.16831665E1,5.5512695E0,8.737923E0,5.675989E1,7.8427334E0,0E0,0E0,0E0,0E0,0E0,0E0,0E0,0E0,0E0,0E0,0E0,0E0,0E0,0E0,0E0,0E0,0E0,0E0,0E0,0E0,0E0,0E0,0E0,0E0,0E0,0E0,0E0,0E0,0E0,0E0,0E0,0E0],"parents":[2147483647,0,0,1,1,3,3,4,4,5,5,6,6,7,7,8,8,9,9,10,10,11,11,12,12,13,13,14,14,15,15,16,16,17,17,18,18,19,19,20,20,21,21,22,22,23,23,24,24,25,25,26,26,27,27,28,28,29,29,30,30,31,31,32,32],"right_children":[2,4,-1,6,8,10,12,14,16,18,20,22,24,26,28,30,32,34,36,38,40,42,44,46,48,50,52,54,56,58,60,62,64,-1,-1,-1,-1,-1,-1,-1,-1,-1,-1,-1,-1,-1,-1,-1,-1,-1,-1,-1,-1,-1,-1,-1,-1,-1,-1,-1,-1,-1,-1,-1,-1],"split_conditions":[-2.8958793E0,1.3621103E0,1.0633359E-1,4.2539266E-1,8.407853E-1,3.848101E-2,1.3375914E0,-4.8337206E-1,7.0055056E-4,-5.388243E-1,1.4154179E-2,3.793311E0,1.3449471E0,-2.9234284E-1,-2.2418998E-1,1.1500521E0,3.793311E0,-2.52902E-1,1.3167591E0,4.6673354E-2,-2.52902E-1,-2.2102308E-1,4.534119E-1,-1.1011567E-3,-5.4481363E-1,-5.376256E-1,-3.2141834E-1,-3.0871665E-1,6.0779417E-1,-3.7659386E-1,2.4175026E0,1.4154179E-2,3.1372757E0,1.06166385E-1,8.6790524E-2,1.04943864E-1,8.699082E-2,4.764388E-2,8.7248616E-2,1.0549132E-1,8.72423E-2,3.8361844E-2,7.370818E-2,-5.4643746E-2,4.8897628E-2,9.597734E-2,5.7419267E-2,3.005602E-2,1.0598451E-1,-6.667995E-2,6.1537374E-2,2.0880222E-2,-6.504832E-2,3.856519E-2,-4.4071775E-2,9.5394656E-2,-6.1025638E-2,2.8197264E-2,1.0163601E-1,6.0664993E-2,-2.0650795E-2,1.09467E-3,-1.0334773E-1,7.329985E-2,-8.2262186E-4],"split_indices":[37,32,0,16,7,16,32,5,36,3,36,2,32,2,5,2,2,31,0,32,31,4,7,36,3,3,16,30,15,30,0,36,32,0,0,0,0,0,0,0,0,0,0,0,0,0,0,0,0,0,0,0,0,0,0,0,0,0,0,0,0,0,0,0,0],"split_type":[0,0,0,0,0,0,0,0,0,0,0,0,0,0,0,0,0,0,0,0,0,0,0,0,0,0,0,0,0,0,0,0,0,0,0,0,0,0,0,0,0,0,0,0,0,0,0,0,0,0,0,0,0,0,0,0,0,0,0,0,0,0,0,0,0],"sum_hessian":[3.628784E5,2.7896646E4,3.3498178E5,2.1902994E4,5.993652E3,1.0115675E4,1.1787319E4,4.8782285E3,1.1154236E3,7.986423E3,2.1292517E3,9.30935E3,2.47797E3,4.312242E3,5.659862E2,6.8095197E2,4.3447156E2,3.8483713E3,4.138052E3,1.249488E3,8.7976373E2,7.3051436E3,2.004206E3,3.7912448E2,2.0988455E3,6.596122E2,3.65263E3,3.9807355E2,1.6791267E2,3.496721E2,3.3127988E2,3.485401E2,8.593147E1,5.891268E2,3.2592444E3,3.4747368E3,6.6331506E2,7.1976434E2,5.2972363E2,1.1725134E2,7.625124E2,4.7520527E3,2.5530906E3,1.5014552E3,5.0275082E2,1.5569548E2,2.23429E2,1.630838E0,2.0972146E3,2.1173764E2,4.478745E2,4.222469E2,3.230383E3,3.0048355E2,9.759001E1,1.6363684E2,4.2758265E0,1.1564854E1,3.3810724E2,3.1795355E2,1.3326317E1,2.85936E2,6.2604095E1,6.795823E1,1.7973244E1],"tree_param":{"num_deleted":"0","num_feature":"39","num_nodes":"65","size_leaf_vector":"1"}},{"base_weights":[1.0095873E0,4.6800727E-1,1.0569463E-1,6.533007E-1,-1.6695064E-1,8.589033E-1,4.1081962E-1,-4.5374033E-1,1.2307482E-1,9.463134E-1,6.910928E-1,2.3183765E-1,9.982301E-1,-5.026467E-1,1.0157038E0,6.094918E-1,-1.7036255E-1,8.778673E-1,1.0104647E0,5.8327353E-1,8.873922E-1,4.773997E-1,-2.4879E-1,7.002235E-1,1.0522132E0,4.4693646E-1,-5.8171684E-1,1.0691832E0,6.9579357E-1,7.2404647E-1,-2.7312347E-1,-1.784517E-2,-7.8167814E-1,1.0551059E-1,8.460733E-2,1.04167774E-1,8.482698E-2,3.8421147E-2,8.128386E-2,1.05280474E-1,8.65645E-2,9.190008E-2,3.881004E-2,-4.3184385E-2,6.4319454E-2,5.256916E-2,9.3725435E-2,2.8650103E-2,1.05271176E-1,9.535924E-2,4.0639173E-3,-4.0167984E-2,-8.765648E-2,9.463354E-2,1.2264408E-1,9.5608205E-2,-6.422077E-2,9.898742E-2,5.488925E-2,-1.6050613E-2,-3.0124977E-1,-4.914656E-2,2.3949154E-2,-1.03473864E-1,4.290522E-2],"categories":[],"categories_nodes":[],"categories_segments":[],"categories_sizes":[],"default_left":[0,0,0,0,0,0,0,0,0,0,0,0,0,0,0,0,0,0,0,0,0,0,0,0,0,0,0,0,0,0,0,0,0,0,0,0,0,0,0,0,0,0,0,0,0,0,0,0,0,0,0,0,0,0,0,0,0,0,0,0,0,0,0,0,0],"id":8,"left_children":[1,3,-1,5,7,9,11,13,15,17,19,21,23,25,27,29,31,33,35,37,39,41,43,45,47,49,51,53,55,57,59,61,63,-1,-1,-1,-1,-1,-1,-1,-1,-1,-1,-1,-1,-1,-1,-1,-1,-1,-1,-1,-1,-1,-1,-1,-1,-1,-1,-1,-1,-1,-1,-1,-1],"loss_changes":[8.502094E3,3.1366553E3,0E0,1.0285049E3,5.0103195E2,1.6314648E2,9.9553467E2,2.1816394E2,4.2764938E2,3.134082E1,8.050647E1,8.570476E2,3.4841797E1,2.2038684E2,9.307327E-1,1.14177734E2,1.7425496E2,1.9160156E1,1.8263428E1,1.127406E2,3.9639893E0,1.8915784E2,4.0127222E2,1.3662735E1,4.1235352E-1,4.6468067E1,1.4333612E2,4.235382E-1,6.4938116E0,4.59281E1,3.9693035E1,1.8256245E2,1.1478464E2,0E0,0E0,0E0,0E0,0E0,0E0,0E0,0E0,0E0,0E0,0E0,0E0,0E0,0E0,0E0,0E0,0E0,0E0,0E0,0E0,0E0,0E0,0E0,0E0,0E0,0E0,0E0,0E0,0E0,0E0,0E0,0E0],"parents":[2147483647,0,0,1,1,3,3,4,4,5,5,6,6,7,7,8,8,9,9,10,10,11,11,12,12,13,13,14,14,15,15,16,16,17,17,18,18,19,19,20,20,21,21,22,22,23,23,24,24,25,25,26,26,27,27,28,28,29,29,30,30,31,31,32,32],"right_children":[2,4,-1,6,8,10,12,14,16,18,20,22,24,26,28,30,32,34,36,38,40,42,44,46,48,50,52,54,56,58,60,62,64,-1,-1,-1,-1,-1,-1,-1,-1,-1,-1,-1,-1,-1,-1,-1,-1,-1,-1,-1,-1,-1,-1,-1,-1,-1,-1,-1,-1,-1,-1,-1,-1],"split_conditions":[-2.8958793E0,1.3621103E0,1.0569463E-1,9.108198E-1,6.603851E-2,3.848101E-2,1.3375914E0,-2.6248974E-1,-1.1011567E-3,-5.388243E-1,1.6875306E-2,2.9397082E0,1.3449471E0,-3.0679272E-3,3.0392313E0,2.4175026E0,-2.4032064E-1,-2.52902E-1,1.3167591E0,-4.8337206E-1,-2.52902E-1,1.2043572E-4,1.6875306E-2,-5.311105E-1,-5.4481363E-1,8.20251E-1,-1.0707378E-1,1.9088373E0,3.5925987E0,-3.2338294E-1,4.8653636E0,-5.42863E-1,1.2281587E0,1.0551059E-1,8.460733E-2,1.04167774E-1,8.482698E-2,3.8421147E-2,8.128386E-2,1.05280474E-1,8.65645E-2,9.190008E-2,3.881004E-2,-4.3184385E-2,6.4319454E-2,5.256916E-2,9.3725435E-2,2.8650103E-2,1.05271176E-1,9.535924E-2,4.0639173E-3,-4.0167984E-2,-8.765648E-2,9.463354E-2,1.2264408E-1,9.5608205E-2,-6.422077E-2,9.898742E-2,5.488925E-2,-1.6050613E-2,-3.0124977E-1,-4.914656E-2,2.3949154E-2,-1.03473864E-1,4.290522E-2],"split_indices":[37,32,0,16,7,16,32,6,36,3,36,2,32,36,16,0,30,31,0,5,31,36,36,3,3,2,30,8,34,2,34,3,7,0,0,0,0,0,0,0,0,0,0,0,0,0,0,0,0,0,0,0,0,0,0,0,0,0,0,0,0,0,0,0,0],"split_type":[0,0,0,0,0,0,0,0,0,0,0,0,0,0,0,0,0,0,0,0,0,0,0,0,0,0,0,0,0,0,0,0,0,0,0,0,0,0,0,0,0,0,0,0,0,0,0,0,0,0,0,0,0,0,0,0,0,0,0,0,0,0,0,0,0],"sum_hessian":[3.3150088E5,2.6658178E4,3.048427E5,2.0636117E4,6.0220615E3,1.1165888E4,9.470229E3,3.027638E3,2.9944236E3,7.338651E3,3.8272368E3,7.2596367E3,2.2105918E3,2.930754E3,9.688401E1,1.1263125E3,1.8681111E3,3.5575803E3,3.7810706E3,2.4729294E3,1.3543074E3,4.8047847E3,2.4548518E3,3.4117117E2,1.8694207E3,2.2492255E2,2.7058315E3,8.100093E1,1.5883078E1,9.97081E2,1.2923152E2,1.495922E3,3.7218903E2,5.36214E2,3.0213665E3,3.1663167E3,6.147537E2,1.3258889E3,1.1470405E3,1.5185593E2,1.2024514E3,8.0661896E2,3.998166E3,2.0372761E3,4.175757E2,1.9834352E2,1.4282765E2,1.5909517E0,1.8678297E3,9.9499214E1,1.2542334E2,1.6814713E3,1.0243601E3,4.9415688E1,3.1585243E1,1.3535403E1,2.347674E0,3.9418408E2,6.028969E2,1.2514532E2,4.086208E0,5.263257E2,9.695964E2,3.0796512E2,6.422391E1],"tree_param":{"num_deleted":"0","num_feature":"39","num_nodes":"65","size_leaf_vector":"1"}},{"base_weights":[9.998974E-1,4.4231218E-1,1.0512339E-1,6.2572634E-1,-1.4840086E-1,8.797293E-1,4.2370698E-1,-2.6724705E-1,4.2457524E-1,1.0005289E0,7.995552E-1,2.902013E-1,9.8742336E-1,-3.475044E-1,3.8086867E-1,7.424589E-1,-1.3257742E-2,1.0367447E0,8.110595E-1,1.0509499E-1,7.559238E-1,4.8201928E-1,-1.4358361E-1,6.8037134E-1,1.0461057E0,-1.2769977E0,-2.8985924E-1,1.8117964E-1,8.8576126E-1,9.685729E-1,5.1761633E-1,5.7782435E-1,-1.7338319E-1,1.03743315E-1,-4.7124647E-2,5.1509973E-2,1.0533655E-1,6.298613E-2,8.894889E-2,8.7927654E-2,4.048352E-2,-3.4139186E-2,6.8964005E-2,9.2875E-2,5.152723E-2,2.7304882E-2,1.0466387E-1,9.77073E-2,-1.4513896E-1,2.80871E-2,-3.8651556E-2,2.3763541E-2,-1.5912758E-1,9.312953E-2,-5.2677896E-2,9.955082E-2,1.912095E-2,5.426786E-2,-5.855581E-2,2.7794227E-2,7.319339E-2,-3.3442874E-2,7.3754944E-2],"categories":[],"categories_nodes":[],"categories_segments":[],"categories_sizes":[],"default_left":[0,0,0,0,0,0,0,0,0,0,0,0,0,0,0,0,0,0,0,0,0,0,0,0,0,0,0,0,0,0,0,0,0,0,0,0,0,0,0,0,0,0,0,0,0,0,0,0,0,0,0,0,0,0,0,0,0,0,0,0,0,0,0],"id":9,"left_children":[1,3,-1,5,7,9,11,13,15,17,19,21,23,25,27,29,31,33,35,-1,37,39,41,43,45,47,49,51,53,55,57,59,61,-1,-1,-1,-1,-1,-1,-1,-1,-1,-1,-1,-1,-1,-1,-1,-1,-1,-1,-1,-1,-1,-1,-1,-1,-1,-1,-1,-1,-1,-1],"loss_changes":[8.666625E3,2.765996E3,0E0,9.9923096E2,4.1204773E2,8.2770996E1,8.16458E2,2.607709E2,1.4469864E2,2.2752686E1,5.6150146E1,7.302818E2,3.6724E1,2.3855408E2,5.555304E1,3.0120178E1,4.1581284E1,3.4814453E0,3.935443E1,0E0,7.3985596E1,1.8622913E2,4.438507E2,1.3308731E1,4.3249512E-1,1.0366254E2,2.3180212E2,4.0127975E1,1.0547234E1,6.073517E0,8.72699E0,4.1246376E0,5.094952E1,0E0,0E0,0E0,0E0,0E0,0E0,0E0,0E0,0E0,0E0,0E0,0E0,0E0,0E0,0E0,0E0,0E0,0E0,0E0,0E0,0E0,0E0,0E0,0E0,0E0,0E0,0E0,0E0,0E0,0E0],"parents":[2147483647,0,0,1,1,3,3,4,4,5,5,6,6,7,7,8,8,9,9,10,10,11,11,12,12,13,13,14,14,15,15,16,16,17,17,18,18,20,20,21,21,22,22,23,23,24,24,25,25,26,26,27,27,28,28,29,29,30,30,31,31,32,32],"right_children":[2,4,-1,6,8,10,12,14,16,18,20,22,24,26,28,30,32,34,36,-1,38,40,42,44,46,48,50,52,54,56,58,60,62,-1,-1,-1,-1,-1,-1,-1,-1,-1,-1,-1,-1,-1,-1,-1,-1,-1,-1,-1,-1,-1,-1,-1,-1,-1,-1,-1,-1,-1,-1],"split_conditions":[-2.8958793E0,1.3621103E0,1.0512339E-1,4.2539266E-1,8.407853E-1,7.0055056E-4,1.3375914E0,-4.8337206E-1,7.0055056E-4,6.0779417E-1,-2.52902E-1,2.9397082E0,1.3449471E0,-5.43372E-1,-2.2418998E-1,1.1500521E0,1.6113735E0,1.3170198E1,1.3130726E0,1.0509499E-1,-4.8337206E-1,-3.0272043E-1,1.6875306E-2,-1.1011567E-3,-5.4481363E-1,3.848101E-2,-2.9234284E-1,-1.5827942E-1,6.0779417E-1,2.7102017E0,4.9124413E0,3.0097778E0,1.5239127E-1,1.03743315E-1,-4.7124647E-2,5.1509973E-2,1.0533655E-1,6.298613E-2,8.894889E-2,8.7927654E-2,4.048352E-2,-3.4139186E-2,6.8964005E-2,9.2875E-2,5.152723E-2,2.7304882E-2,1.0466387E-1,9.77073E-2,-1.4513896E-1,2.80871E-2,-3.8651556E-2,2.3763541E-2,-1.5912758E-1,9.312953E-2,-5.2677896E-2,9.955082E-2,1.912095E-2,5.426786E-2,-5.855581E-2,2.7794227E-2,7.319339E-2,-3.3442874E-2,7.3754944E-2],"split_indices":[37,32,0,16,7,36,32,5,36,15,31,2,32,3,5,2,8,17,32,0,5,32,36,36,3,16,2,31,15,15,32,32,15,0,0,0,0,0,0,0,0,0,0,0,0,0,0,0,0,0,0,0,0,0,0,0,0,0,0,0,0,0,0],"split_type":[0,0,0,0,0,0,0,0,0,0,0,0,0,0,0,0,0,0,0,0,0,0,0,0,0,0,0,0,0,0,0,0,0,0,0,0,0,0,0,0,0,0,0,0,0,0,0,0,0,0,0,0,0,0,0,0,0,0,0,0,0,0,0],"sum_hessian":[3.0278347E5,2.5527635E4,2.772558E5,1.947932E4,6.048314E3,8.627917E3,1.0851404E4,5.009733E3,1.0385808E3,3.437337E3,5.1905796E3,8.774777E3,2.0766272E3,4.4581377E3,5.515956E2,6.013104E2,4.3727036E2,2.8819927E3,5.553441E2,7.642199E2,4.42636E3,6.0842393E3,2.6905378E3,3.3521722E2,1.7414099E3,2.5910327E2,4.199034E3,3.9623883E2,1.5535675E2,2.981583E2,3.0315216E2,9.265138E1,3.4461896E2,2.8809897E3,1.0030867E0,2.5140108E2,3.0394302E2,2.2800754E3,2.1462844E3,9.881185E2,5.096121E3,2.1748228E3,5.1571515E2,1.3200328E2,2.0321396E2,1.553633E0,1.7398562E3,1.8276096E1,2.4082716E2,6.078621E2,3.591172E3,3.848467E2,1.1392105E1,1.5083519E2,4.52156E0,2.87902E2,1.02563E1,2.9691483E2,6.2373333E0,3.240261E1,6.0248768E1,2.9338394E2,5.123504E1],"tree_param":{"num_deleted":"0","num_feature":"39","num_nodes":"63","size_leaf_vector":"1"}},{"base_weights":[9.9041224E-1,4.1713235E-1,1.0461207E-1,5.980982E-1,-1.3216563E-1,8.603768E-1,3.9781263E-1,-3.666402E-1,1.17227875E-1,9.547679E-1,7.4214286E-1,2.6914692E-1,9.7621596E-1,-4.0624458E-1,9.838583E-1,5.6745696E-1,-1.3096714E-1,9.17025E-1,1.0423845E-1,1.0460279E-1,6.8980557E-1,8.0945656E-2,6.592747E-1,6.526059E-1,1.0402776E0,4.3513536E-1,-4.7238925E-1,1.0405794E0,6.6958755E-1,6.8276936E-1,-2.1403208E-1,8.49321E-1,-2.1180724E-1,9.760789E-2,8.4696025E-2,5.2782804E-2,8.482416E-2,1.0755918E-1,-2.3198933E-3,6.1046638E-2,9.328711E-2,9.126887E-2,4.862321E-2,2.6018316E-2,1.0408614E-1,9.323286E-2,7.3445546E-3,-3.2140333E-2,-7.148737E-2,1.0533384E-1,2.6182288E-2,9.29366E-2,-5.9576243E-2,9.6616186E-2,5.1280644E-2,-1.16868755E-2,-2.2167814E-1,1.0116337E-2,9.04289E-2,-6.4241804E-2,-6.256415E-4],"categories":[],"categories_nodes":[],"categories_segments":[],"categories_sizes":[],"default_left":[0,0,0,0,0,0,0,0,0,0,0,0,0,0,0,0,0,0,0,0,0,0,0,0,0,0,0,0,0,0,0,0,0,0,0,0,0,0,0,0,0,0,0,0,0,0,0,0,0,0,0,0,0,0,0,0,0,0,0,0,0],"id":10,"left_children":[1,3,-1,5,7,9,11,13,15,17,19,21,23,25,27,29,31,33,-1,-1,35,37,39,41,43,45,47,49,51,53,55,57,59,-1,-1,-1,-1,-1,-1,-1,-1,-1,-1,-1,-1,-1,-1,-1,-1,-1,-1,-1,-1,-1,-1,-1,-1,-1,-1,-1,-1],"loss_changes":[8.8309375E3,2.434811E3,0E0,9.674707E2,3.5502213E2,8.831006E1,7.773091E2,1.6775931E2,3.2887234E2,1.3699951E1,5.5667725E1,6.2759375E2,3.8728638E1,1.6942459E2,8.97583E-1,9.4390045E1,1.505576E2,1.2024414E1,0E0,0E0,7.724768E1,5.974854E2,3.6576904E1,1.3264603E1,4.5117188E-1,3.9878033E1,1.029964E2,4.5909882E-1,5.970624E0,4.3411896E1,2.6056622E1,5.861908E0,1.5523152E2,0E0,0E0,0E0,0E0,0E0,0E0,0E0,0E0,0E0,0E0,0E0,0E0,0E0,0E0,0E0,0E0,0E0,0E0,0E0,0E0,0E0,0E0,0E0,0E0,0E0,0E0,0E0,0E0],"parents":[2147483647,0,0,1,1,3,3,4,4,5,5,6,6,7,7,8,8,9,9,10,10,11,11,12,12,13,13,14,14,15,15,16,16,17,17,20,20,21,21,22,22,23,23,24,24,25,25,26,26,27,27,28,28,29,29,30,30,31,31,32,32],"right_children":[2,4,-1,6,8,10,12,14,16,18,20,22,24,26,28,30,32,34,-1,-1,36,38,40,42,44,46,48,50,52,54,56,58,60,-1,-1,-1,-1,-1,-1,-1,-1,-1,-1,-1,-1,-1,-1,-1,-1,-1,-1,-1,-1,-1,-1,-1,-1,-1,-1,-1,-1],"split_conditions":[-2.8958793E0,1.3621103E0,1.0461207E-1,4.2539266E-1,6.603851E-2,-3.2141834E-1,1.3375914E0,-2.6248974E-1,-1.1011567E-3,-2.2418998E-1,-2.52902E-1,-4.8337206E-1,1.3449471E0,-3.0679272E-3,3.0392313E0,2.4175026E0,4.2539266E-1,4.0945455E-1,1.0423845E-1,1.0460279E-1,-4.8337206E-1,-2.52902E-1,2.5333898E-2,-1.1011567E-3,-5.4481363E-1,8.20251E-1,-1.0707378E-1,3.9383988E0,-1.637534E-1,-3.2338294E-1,4.8653636E0,1.443081E0,-5.42863E-1,9.760789E-2,8.4696025E-2,5.2782804E-2,8.482416E-2,1.0755918E-1,-2.3198933E-3,6.1046638E-2,9.328711E-2,9.126887E-2,4.862321E-2,2.6018316E-2,1.0408614E-1,9.323286E-2,7.3445546E-3,-3.2140333E-2,-7.148737E-2,1.0533384E-1,2.6182288E-2,9.29366E-2,-5.9576243E-2,9.6616186E-2,5.1280644E-2,-1.16868755E-2,-2.2167814E-1,1.0116337E-2,9.04289E-2,-6.4241804E-2,-6.256415E-4],"split_indices":[37,32,0,16,7,16,32,6,36,5,31,5,32,36,16,0,16,2,0,0,5,31,36,36,3,2,30,25,30,2,34,34,3,0,0,0,0,0,0,0,0,0,0,0,0,0,0,0,0,0,0,0,0,0,0,0,0,0,0,0,0],"split_type":[0,0,0,0,0,0,0,0,0,0,0,0,0,0,0,0,0,0,0,0,0,0,0,0,0,0,0,0,0,0,0,0,0,0,0,0,0,0,0,0,0,0,0,0,0,0,0,0,0,0,0,0,0,0,0,0,0,0,0,0,0],"sum_hessian":[2.7652684E5,2.449225E4,2.5203458E5,1.8422785E4,6.0694644E3,7.9754526E3,1.0447333E4,3.1280586E3,2.941406E3,4.430959E3,3.5444937E3,8.547426E3,1.8999081E3,3.039619E3,8.8439865E1,1.0448136E3,1.8965923E3,3.1049133E3,1.3260457E3,5.179783E2,3.0265154E3,5.766716E3,2.7807097E3,3.1580295E2,1.5841051E3,2.211352E2,2.8184836E3,7.2960495E1,1.5479364E1,9.105796E2,1.34234E2,1.4376418E2,1.7528281E3,1.6778296E3,1.4270837E3,1.4986731E3,1.5278423E3,5.456915E2,5.221024E3,2.3624844E3,4.1822522E2,1.2145439E2,1.9434856E2,1.5187012E0,1.5825864E3,9.245928E1,1.286759E2,1.7383832E3,1.0801005E3,7.1437485E1,1.5230131E0,1.306303E1,2.4163346E0,3.3962012E2,5.709595E2,1.2903235E2,5.201647E0,1.0034001E1,1.3373018E2,5.656713E2,1.1871567E3],"tree_param":{"num_deleted":"0","num_feature":"39","num_nodes":"61","size_leaf_vector":"1"}},{"base_weights":[9.8099685E-1,3.9243203E-1,1.0415389E-1,7.135321E-1,9.404389E-2,8.410459E-1,5.4395735E-1,3.0250472E-1,-2.0083752E-1,9.019983E-1,2.5274444E-1,3.885207E-1,7.571728E-1,1.03563994E-1,9.647491E-1,-2.7661988E-1,6.412142E-1,8.195041E-1,9.818159E-1,8.1360227E-1,1.6427323E-2,1.0462929E-1,2.755419E-1,7.6760143E-1,-3.516233E-1,3.8690895E-1,-3.055523E-1,6.028221E-1,1.0366411E0,-4.358598E-1,-7.021767E-2,-2.7321225E-1,9.040477E-1,7.567894E-2,9.528185E-2,1.0105353E-1,7.121035E-2,-7.8038857E-3,9.211276E-2,1.1078245E-2,-2.4842408E-1,1.0110196E-2,6.8261676E-2,6.915745E-2,9.120415E-2,5.1440187E-2,-2.3663294E-1,2.611352E-2,8.806958E-2,1.11912586E-1,-4.0233895E-2,4.0683392E-2,8.8673286E-2,2.4788303E-2,1.03731275E-1,-4.7044892E-2,9.363855E-2,-5.9165508E-2,1.15409745E-2,1.1652889E-1,-7.178437E-2,1.0347213E-1,7.237735E-2],"categories":[],"categories_nodes":[],"categories_segments":[],"categories_sizes":[],"default_left":[0,0,0,0,0,0,0,0,0,0,0,0,0,0,0,0,0,0,0,0,0,0,0,0,0,0,0,0,0,0,0,0,0,0,0,0,0,0,0,0,0,0,0,0,0,0,0,0,0,0,0,0,0,0,0,0,0,0,0,0,0,0,0],"id":11,"left_children":[1,3,-1,5,7,9,11,13,15,17,19,21,23,25,27,29,31,33,35,37,39,-1,41,43,45,47,49,51,53,55,57,59,61,-1,-1,-1,-1,-1,-1,-1,-1,-1,-1,-1,-1,-1,-1,-1,-1,-1,-1,-1,-1,-1,-1,-1,-1,-1,-1,-1,-1,-1,-1],"loss_changes":[8.999078E3,2.2570723E3,0E0,2.4489893E2,7.507438E2,2.3195068E2,1.6120679E2,9.425165E2,3.2295566E2,3.782422E1,8.0737495E1,2.0931293E2,2.4015991E1,6.3803705E2,4.2377197E1,1.5251636E2,1.0069568E2,2.3449707E1,2.2337158E1,1.7385658E1,1.016553E2,0E0,1.7095131E2,2.1713867E1,3.580014E1,2.0171951E2,3.1102277E2,1.5011757E1,4.7253418E-1,1.2478735E2,1.9583253E2,6.100829E1,6.9039307E0,0E0,0E0,0E0,0E0,0E0,0E0,0E0,0E0,0E0,0E0,0E0,0E0,0E0,0E0,0E0,0E0,0E0,0E0,0E0,0E0,0E0,0E0,0E0,0E0,0E0,0E0,0E0,0E0,0E0,0E0],"parents":[2147483647,0,0,1,1,3,3,4,4,5,5,6,6,7,7,8,8,9,9,10,10,11,11,12,12,13,13,14,14,15,15,16,16,17,17,18,18,19,19,20,20,22,22,23,23,24,24,25,25,26,26,27,27,28,28,29,29,30,30,31,31,32,32],"right_children":[2,4,-1,6,8,10,12,14,16,18,20,22,24,26,28,30,32,34,36,38,40,-1,42,44,46,48,50,52,54,56,58,60,62,-1,-1,-1,-1,-1,-1,-1,-1,-1,-1,-1,-1,-1,-1,-1,-1,-1,-1,-1,-1,-1,-1,-1,-1,-1,-1,-1,-1,-1,-1],"split_conditions":[-2.8958793E0,1.3215659E0,1.0415389E-1,3.848101E-2,1.3621103E0,3.0097778E0,-4.8337206E-1,1.3375914E0,-4.3757907E-1,-5.388243E-1,-4.5453027E-1,-2.52902E-1,3.4143503E0,2.9397082E0,1.3449471E0,6.603851E-2,-3.213349E-1,4.6673354E-2,2.0388467E0,-3.213349E-1,4.9124413E0,1.0462929E-1,2.0210177E-2,-2.2418998E-1,6.603851E-2,-5.363476E-1,-2.52902E-1,-5.311105E-1,-5.4481363E-1,-2.6248974E-1,-5.42863E-1,7.0914865E-1,-2.821578E-1,7.567894E-2,9.528185E-2,1.0105353E-1,7.121035E-2,-7.8038857E-3,9.211276E-2,1.1078245E-2,-2.4842408E-1,1.0110196E-2,6.8261676E-2,6.915745E-2,9.120415E-2,5.1440187E-2,-2.3663294E-1,2.611352E-2,8.806958E-2,1.11912586E-1,-4.0233895E-2,4.0683392E-2,8.8673286E-2,2.4788303E-2,1.03731275E-1,-4.7044892E-2,9.363855E-2,-5.9165508E-2,1.15409745E-2,1.1652889E-1,-7.178437E-2,1.0347213E-1,7.237735E-2],"split_indices":[37,16,0,16,32,32,5,32,3,3,3,31,9,2,32,7,7,32,0,7,32,0,36,5,7,3,31,3,3,6,3,0,2,0,0,0,0,0,0,0,0,0,0,0,0,0,0,0,0,0,0,0,0,0,0,0,0,0,0,0,0,0,0],"split_type":[0,0,0,0,0,0,0,0,0,0,0,0,0,0,0,0,0,0,0,0,0,0,0,0,0,0,0,0,0,0,0,0,0,0,0,0,0,0,0,0,0,0,0,0,0,0,0,0,0,0,0,0,0,0,0,0,0,0,0,0,0,0,0],"sum_hessian":[2.5255975E5,2.3556893E4,2.2900286E5,1.1345951E4,1.2210941E4,6.473878E3,4.8720737E3,7.1537246E3,5.0572163E3,5.8656226E3,6.082551E2,2.819469E3,2.0526047E3,5.502046E3,1.6516791E3,4.640276E3,4.1694064E2,2.889988E3,2.9756345E3,1.7958896E2,4.2866617E2,4.120746E2,2.4073943E3,2.033784E3,1.882071E1,3.2507217E3,2.251324E3,2.7526965E2,1.3764094E3,2.618773E3,2.021503E3,9.307681E1,3.2386383E2,1.9699478E3,9.2004034E2,2.6867942E3,2.888404E2,1.9355974E1,1.6023299E2,4.140008E2,1.4665365E1,1.6861099E3,7.212845E2,1.336236E3,6.9754803E2,1.3683506E1,5.137204E0,2.592028E3,6.5869354E2,1.4254407E2,2.10878E3,1.6429033E2,1.1097934E2,1.4859881E0,1.3749235E3,2.5550276E3,6.374539E1,5.301358E2,1.4913673E3,2.1593924E1,7.148289E1,1.8501459E2,1.3884924E2],"tree_param":{"num_deleted":"0","num_feature":"39","num_nodes":"63","size_leaf_vector":"1"}},{"base_weights":[9.7169507E-1,3.689036E-1,1.0374292E-1,6.87434E-1,8.717156E-2,8.20783E-1,5.151887E-1,2.8208533E-1,-1.7893523E-1,8.8545066E-1,2.3361418E-1,3.6292538E-1,7.310403E-1,9.523706E-2,9.534334E-1,-2.4568489E-1,6.128556E-1,7.9770666E-1,9.7170174E-1,9.674629E-1,6.2110342E-2,1.0412093E-1,2.5449875E-1,6.523209E-1,8.833408E-1,-1.11076824E-1,6.067932E-1,5.747634E-1,1.0318851E0,-2.9294008E-1,3.5927504E-1,-2.4009994E-1,8.80558E-1,1.0358854E-1,7.584579E-2,1.00298546E-1,6.8616144E-2,-1.0756998E-2,1.00096166E-1,-2.3963645E-1,1.1502342E-2,1.0461889E-2,7.091545E-2,4.919786E-2,7.538659E-2,8.9355625E-2,-7.658109E-4,1.071162E-1,-2.0268135E-2,4.1629247E-2,8.225744E-2,3.803661E-2,8.692587E-2,2.361306E-2,1.03262246E-1,-1.005553E-2,-4.807241E-2,5.6818962E-2,-2.640063E-2,1.13096714E-1,-6.218622E-2,1.0281463E-1,6.862267E-2],"categories":[],"categories_nodes":[],"categories_segments":[],"categories_sizes":[],"default_left":[0,0,0,0,0,0,0,0,0,0,0,0,0,0,0,0,0,0,0,0,0,0,0,0,0,0,0,0,0,0,0,0,0,0,0,0,0,0,0,0,0,0,0,0,0,0,0,0,0,0,0,0,0,0,0,0,0,0,0,0,0,0,0],"id":12,"left_children":[1,3,-1,5,7,9,11,13,15,17,19,21,23,25,27,29,31,33,35,37,39,-1,41,43,45,47,49,51,53,55,57,59,61,-1,-1,-1,-1,-1,-1,-1,-1,-1,-1,-1,-1,-1,-1,-1,-1,-1,-1,-1,-1,-1,-1,-1,-1,-1,-1,-1,-1,-1,-1],"loss_changes":[9.13975E3,2.0355032E3,0E0,2.4410205E2,6.244275E2,2.2757373E2,1.5250293E2,8.7156537E2,2.6916925E2,4.0117676E1,7.5013245E1,2.0032904E2,2.2462158E1,5.738931E2,4.434778E1,1.343245E2,9.063959E1,2.4305786E1,2.3611084E1,4.174423E0,6.331064E1,0E0,1.6026402E2,2.0318054E1,5.941101E0,4.1990125E2,6.3895874E1,1.4661995E1,4.9072266E-1,1.5729868E2,4.4503025E1,5.0631763E1,7.945755E0,0E0,0E0,0E0,0E0,0E0,0E0,0E0,0E0,0E0,0E0,0E0,0E0,0E0,0E0,0E0,0E0,0E0,0E0,0E0,0E0,0E0,0E0,0E0,0E0,0E0,0E0,0E0,0E0,0E0,0E0],"parents":[2147483647,0,0,1,1,3,3,4,4,5,5,6,6,7,7,8,8,9,9,10,10,11,11,12,12,13,13,14,14,15,15,16,16,17,17,18,18,19,19,20,20,22,22,23,23,24,24,25,25,26,26,27,27,28,28,29,29,30,30,31,31,32,32],"right_children":[2,4,-1,6,8,10,12,14,16,18,20,22,24,26,28,30,32,34,36,38,40,-1,42,44,46,48,50,52,54,56,58,60,62,-1,-1,-1,-1,-1,-1,-1,-1,-1,-1,-1,-1,-1,-1,-1,-1,-1,-1,-1,-1,-1,-1,-1,-1,-1,-1,-1,-1,-1,-1],"split_conditions":[-2.8958793E0,1.3215659E0,1.0374292E-1,3.848101E-2,1.3621103E0,3.0097778E0,-4.8337206E-1,1.3375914E0,-4.3757907E-1,-5.388243E-1,1.0282756E0,-2.52902E-1,-2.2418998E-1,-2.2102308E-1,1.3449471E0,1.2281587E0,-3.213349E-1,-2.52902E-1,2.0388467E0,3.2457945E0,-3.8546315E-1,1.0412093E-1,-2.2102308E-1,9.0916E-3,3.4143503E0,-2.52902E-1,2.0410159E-1,-5.311105E-1,-5.4481363E-1,-2.861918E-1,5.8022193E-3,7.0914865E-1,-2.821578E-1,1.0358854E-1,7.584579E-2,1.00298546E-1,6.8616144E-2,-1.0756998E-2,1.00096166E-1,-2.3963645E-1,1.1502342E-2,1.0461889E-2,7.091545E-2,4.919786E-2,7.538659E-2,8.9355625E-2,-7.658109E-4,1.071162E-1,-2.0268135E-2,4.1629247E-2,8.225744E-2,3.803661E-2,8.692587E-2,2.361306E-2,1.03262246E-1,-1.005553E-2,-4.807241E-2,5.6818962E-2,-2.640063E-2,1.13096714E-1,-6.218622E-2,1.0281463E-1,6.862267E-2],"split_indices":[37,16,0,16,32,32,5,32,3,3,15,31,5,4,32,7,7,31,0,34,2,0,4,36,9,31,4,3,3,30,36,0,2,0,0,0,0,0,0,0,0,0,0,0,0,0,0,0,0,0,0,0,0,0,0,0,0,0,0,0,0,0,0],"split_type":[0,0,0,0,0,0,0,0,0,0,0,0,0,0,0,0,0,0,0,0,0,0,0,0,0,0,0,0,0,0,0,0,0,0,0,0,0,0,0,0,0,0,0,0,0,0,0,0,0,0,0,0,0,0,0,0,0,0,0,0,0,0,0],"sum_hessian":[2.3067078E5,2.2681842E4,2.0798894E5,1.0645004E4,1.2036837E4,5.9978315E3,4.6471724E3,6.9477773E3,5.0890596E3,5.402339E3,5.95493E2,2.7265352E3,1.9206371E3,5.4359863E3,1.511791E3,4.694032E3,3.9502722E2,2.6830732E3,2.7192654E3,1.1192698E2,4.8356604E2,3.74593E2,2.3519421E3,1.2696683E3,6.509689E2,3.8742566E3,1.5617297E3,2.608841E2,1.2509069E3,4.354412E3,3.3962012E2,9.43886E1,3.0063864E2,3.7599277E2,2.3070806E3,2.4484963E3,2.7076913E2,3.3155098E0,1.0861147E2,9.255246E0,4.743108E2,1.7697605E3,5.821816E2,4.9457135E2,7.750969E2,6.435871E2,7.381743E0,2.7783624E2,3.5964204E3,8.310092E2,7.307206E2,1.5852968E2,1.0235441E2,1.4553448E0,1.2494515E3,2.151616E3,2.2027961E3,2.5442804E2,8.5192085E1,2.0130196E1,7.425841E1,1.6843056E2,1.3220807E2],"tree_param":{"num_deleted":"0","num_feature":"39","num_nodes":"63","size_leaf_vector":"1"}},{"base_weights":[9.622766E-1,3.459046E-1,1.0337398E-1,7.063615E-1,1.1072781E-1,6.352812E-1,9.7717977E-1,2.8693894E-1,-1.569622E-1,1.034822E-1,5.712402E-1,1.0087411E0,8.003091E-1,1.6097681E-1,1.025164E0,3.1268135E-1,-2.4940108E-1,6.7713344E-1,4.112942E-1,9.449047E-1,1.0329341E-1,9.9915564E-2,7.276858E-1,3.632617E-1,-1.7781425E-1,2.249034E-2,1.02595225E-1,-3.4895417E-1,7.784186E-1,-7.18851E-1,-1.4983921E-1,7.656048E-2,1.6495697E-2,2.401015E-2,7.4205026E-2,9.491867E-2,-1.0348099E-2,9.813029E-2,6.495546E-2,8.547285E-2,2.5997592E-2,-3.8895886E-2,3.436601E-2,3.0064313E-3,-8.312404E-2,8.9887574E-2,-9.375099E-2,-1.608632E-1,-4.985797E-2,-2.0783568E-2,4.9419317E-2],"categories":[],"categories_nodes":[],"categories_segments":[],"categories_sizes":[],"default_left":[0,0,0,0,0,0,0,0,0,0,0,0,0,0,0,0,0,0,0,0,0,0,0,0,0,0,0,0,0,0,0,0,0,0,0,0,0,0,0,0,0,0,0,0,0,0,0,0,0,0,0],"id":13,"left_children":[1,3,-1,5,7,9,11,13,15,-1,17,19,21,23,25,27,29,31,33,35,-1,-1,37,39,41,-1,-1,43,45,47,49,-1,-1,-1,-1,-1,-1,-1,-1,-1,-1,-1,-1,-1,-1,-1,-1,-1,-1,-1,-1],"loss_changes":[9.281828E3,1.8560139E3,0E0,1.6579102E2,6.251172E2,1.7469165E2,9.215088E0,7.429544E2,2.284738E2,0E0,9.97583E1,1.3710938E0,3.2687683E0,4.679954E2,5.0390625E-1,2.6702032E2,2.0537286E2,1.6082935E2,1.3318335E2,2.0257874E0,0E0,0E0,3.451706E0,2.1681201E2,2.8127112E2,0E0,0E0,6.552161E1,1.05915405E2,1.4991162E2,1.3562692E2,0E0,0E0,0E0,0E0,0E0,0E0,0E0,0E0,0E0,0E0,0E0,0E0,0E0,0E0,0E0,0E0,0E0,0E0,0E0,0E0],"parents":[2147483647,0,0,1,1,3,3,4,4,5,5,6,6,7,7,8,8,10,10,11,11,12,12,13,13,14,14,15,15,16,16,17,17,18,18,19,19,22,22,23,23,24,24,27,27,28,28,29,29,30,30],"right_children":[2,4,-1,6,8,10,12,14,16,-1,18,20,22,24,26,28,30,32,34,36,-1,-1,38,40,42,-1,-1,44,46,48,50,-1,-1,-1,-1,-1,-1,-1,-1,-1,-1,-1,-1,-1,-1,-1,-1,-1,-1,-1,-1],"split_conditions":[-2.8958793E0,9.108198E-1,1.0337398E-1,-2.2418998E-1,1.3621103E0,-2.52902E-1,-2.2102308E-1,1.3449471E0,-2.9234284E-1,1.034822E-1,3.848101E-2,3.499211E-2,-3.2141834E-1,2.9397082E0,-5.4481363E-1,1.9419814E0,-1.1580223E-1,2.9324133E0,1.6875306E-2,3.4143503E0,1.0329341E-1,9.9915564E-2,-3.0394635E-1,1.2043572E-4,4.534119E-1,2.249034E-2,1.02595225E-1,2.310477E0,4.8146355E-3,-5.363476E-1,-2.2102308E-1,7.656048E-2,1.6495697E-2,2.401015E-2,7.4205026E-2,9.491867E-2,-1.0348099E-2,9.813029E-2,6.495546E-2,8.547285E-2,2.5997592E-2,-3.8895886E-2,3.436601E-2,3.0064313E-3,-8.312404E-2,8.9887574E-2,-9.375099E-2,-1.608632E-1,-4.985797E-2,-2.0783568E-2,4.9419317E-2],"split_indices":[37,16,0,5,32,31,4,32,2,0,16,5,16,2,3,0,2,34,36,9,0,0,32,36,7,0,0,33,36,3,4,0,0,0,0,0,0,0,0,0,0,0,0,0,0,0,0,0,0,0,0],"split_type":[0,0,0,0,0,0,0,0,0,0,0,0,0,0,0,0,0,0,0,0,0,0,0,0,0,0,0,0,0,0,0,0,0,0,0,0,0,0,0,0,0,0,0,0,0,0,0,0,0,0,0],"sum_hessian":[2.107278E5,2.1894344E4,1.8883345E5,8.643854E3,1.325049E4,6.849459E3,1.794395E3,7.990529E3,5.2599614E3,9.44117E2,5.905342E3,1.5186917E3,2.757035E2,6.8268867E3,1.1636421E3,8.646502E2,4.3953115E3,3.5510886E3,2.3542532E3,4.283866E2,1.090305E3,7.034288E1,2.053606E2,4.274564E3,2.5523228E3,1.4266208E0,1.1622155E3,3.573056E2,5.073446E2,7.679738E2,3.6273374E3,3.0276155E3,5.2347327E2,1.5524579E3,8.017953E2,4.2673825E2,1.6483376E0,4.5642757E1,1.5971785E2,7.410649E2,3.533499E3,1.8169109E3,7.3541187E2,2.0059775E2,1.5670786E2,4.7451044E2,3.2834175E1,1.511408E2,6.16833E2,3.328295E3,2.990426E2],"tree_param":{"num_deleted":"0","num_feature":"39","num_nodes":"51","size_leaf_vector":"1"}},{"base_weights":[9.5280486E-1,3.239433E-1,1.0304252E-1,6.8076396E-1,1.0223466E-1,6.0793215E-1,9.674849E-1,1.0513466E-1,5.4290157E-2,1.0311854E-1,5.4308766E-1,1.0019408E0,7.784481E-1,-4.2667173E-2,5.20417E-1,6.506737E-1,3.847379E-1,9.318013E-1,1.0287936E-1,9.911891E-2,7.0271224E-1,3.4056354E-1,-2.0631576E-1,3.7693167E-1,7.6501876E-1,7.421386E-2,1.505819E-2,2.2092482E-2,7.156607E-2,9.364103E-2,-9.644177E-3,9.7112E-2,6.2235236E-2,1.50882555E-2,8.297246E-2,-3.5902288E-2,3.948309E-2,2.500598E-2,5.7684552E-2,5.9277993E-2,8.6934745E-2],"categories":[],"categories_nodes":[],"categories_segments":[],"categories_sizes":[],"default_left":[0,0,0,0,0,0,0,0,0,0,0,0,0,0,0,0,0,0,0,0,0,0,0,0,0,0,0,0,0,0,0,0,0,0,0,0,0,0,0,0,0],"id":14,"left_children":[1,3,-1,5,7,9,11,-1,13,-1,15,17,19,21,23,25,27,29,-1,-1,31,33,35,37,39,-1,-1,-1,-1,-1,-1,-1,-1,-1,-1,-1,-1,-1,-1,-1,-1],"loss_changes":[9.398047E3,1.6735605E3,0E0,1.6871143E2,5.9375226E2,1.7695117E2,9.905518E0,0E0,5.614708E2,0E0,9.533313E1,1.6483154E0,3.4508057E0,6.450821E2,7.479004E1,1.5263281E2,1.2301941E2,1.9566345E0,0E0,0E0,3.5641403E0,2.854659E2,6.618112E2,3.410266E1,1.3679413E1,0E0,0E0,0E0,0E0,0E0,0E0,0E0,0E0,0E0,0E0,0E0,0E0,0E0,0E0,0E0,0E0],"parents":[2147483647,0,0,1,1,3,3,4,4,5,5,6,6,8,8,10,10,11,11,12,12,13,13,14,14,15,15,16,16,17,17,20,20,21,21,22,22,23,23,24,24],"right_children":[2,4,-1,6,8,10,12,-1,14,-1,16,18,20,22,24,26,28,30,-1,-1,32,34,36,38,40,-1,-1,-1,-1,-1,-1,-1,-1,-1,-1,-1,-1,-1,-1,-1,-1],"split_conditions":[-2.8958793E0,9.108198E-1,1.0304252E-1,-2.2418998E-1,-2.52902E-1,-2.52902E-1,-2.2102308E-1,1.0513466E-1,-2.2102308E-1,1.0311854E-1,3.848101E-2,3.499211E-2,-3.2141834E-1,-1.7634054E-3,2.0410159E-1,2.9324133E0,1.6875306E-2,3.4143503E0,1.0287936E-1,9.911891E-2,-2.3830396E-1,6.603851E-2,-4.8337206E-1,1.0430383E-2,9.0916E-3,7.421386E-2,1.505819E-2,2.2092482E-2,7.156607E-2,9.364103E-2,-9.644177E-3,9.7112E-2,6.2235236E-2,1.50882555E-2,8.297246E-2,-3.5902288E-2,3.948309E-2,2.500598E-2,5.7684552E-2,5.9277993E-2,8.6934745E-2],"split_indices":[37,16,0,5,31,31,4,0,4,0,16,5,16,36,4,34,36,9,0,0,34,7,5,36,36,0,0,0,0,0,0,0,0,0,0,0,0,0,0,0,0],"split_type":[0,0,0,0,0,0,0,0,0,0,0,0,0,0,0,0,0,0,0,0,0,0,0,0,0,0,0,0,0,0,0,0,0,0,0,0,0,0,0,0,0],"sum_hessian":[1.925397E5,2.1154678E4,1.7138503E5,8.1062725E3,1.3048406E4,6.466736E3,1.6395363E3,6.264399E2,1.2421966E4,8.571352E2,5.609601E3,1.3831313E3,2.5640488E2,1.0283782E4,2.1381836E3,3.3383496E3,2.2712512E3,3.9280988E2,9.903215E2,6.414239E1,1.9226248E2,3.0770037E3,7.206779E3,1.3492462E3,7.8893726E2,2.821774E3,5.1657574E2,1.5203275E3,7.509237E2,3.9114594E2,1.6639302E0,4.1745354E1,1.5051714E2,2.2181748E3,8.5882886E2,5.747233E3,1.459546E3,8.267894E2,5.224568E2,3.0012894E2,4.8880832E2],"tree_param":{"num_deleted":"0","num_feature":"39","num_nodes":"41","size_leaf_vector":"1"}},{"base_weights":[9.4288886E-1,3.0215275E-1,1.027445E-1,6.5478456E-1,9.3977824E-2,5.8047163E-1,9.576324E-1,1.0461205E-1,4.9936388E-2,1.0278948E-1,5.1511925E-1,1.0138023E0,8.194038E-1,-3.7813857E-2,4.9046272E-1,6.239E-1,3.591086E-1,1.0174702E0,6.3364487E-3,9.0332747E-1,6.72388E-1,6.80986E-1,-1.1664952E-1,3.5045746E-1,7.3750675E-1,7.1807265E-2,1.3729808E-2,2.0293541E-2,6.889173E-2,1.1228382E-2,1.0183986E-1,-1.1170383E-1,7.509204E-2,9.780916E-2,7.893005E-2,7.148304E-2,1.511641E-2,5.0565362E-2,8.8908836E-2,-2.1359289E-2,3.8686104E-2,2.2963455E-2,5.4656472E-2,5.6143958E-2,8.471015E-2],"categories":[],"categories_nodes":[],"categories_segments":[],"categories_sizes":[],"default_left":[0,0,0,0,0,0,0,0,0,0,0,0,0,0,0,0,0,0,0,0,0,0,0,0,0,0,0,0,0,0,0,0,0,0,0,0,0,0,0,0,0,0,0,0,0],"id":15,"left_children":[1,3,-1,5,7,9,11,-1,13,-1,15,17,19,21,23,25,27,29,31,33,35,37,39,41,43,-1,-1,-1,-1,-1,-1,-1,-1,-1,-1,-1,-1,-1,-1,-1,-1,-1,-1,-1,-1],"loss_changes":[9.536422E3,1.5065048E3,0E0,1.7089258E2,5.411373E2,1.784082E2,1.0811523E1,0E0,4.7689465E2,0E0,9.0428955E1,3.9179688E0,4.8025513E0,5.830757E2,7.061862E1,1.4405933E2,1.1301141E2,7.750244E-1,4.9028783E0,1.5828094E0,3.503418E0,3.665738E1,4.5267285E2,3.0910843E1,1.3810181E1,0E0,0E0,0E0,0E0,0E0,0E0,0E0,0E0,0E0,0E0,0E0,0E0,0E0,0E0,0E0,0E0,0E0,0E0,0E0,0E0],"parents":[2147483647,0,0,1,1,3,3,4,4,5,5,6,6,8,8,10,10,11,11,12,12,13,13,14,14,15,15,16,16,17,17,18,18,19,19,20,20,21,21,22,22,23,23,24,24],"right_children":[2,4,-1,6,8,10,12,-1,14,-1,16,18,20,22,24,26,28,30,32,34,36,38,40,42,44,-1,-1,-1,-1,-1,-1,-1,-1,-1,-1,-1,-1,-1,-1,-1,-1,-1,-1,-1,-1],"split_conditions":[-2.8958793E0,9.108198E-1,1.027445E-1,-2.2418998E-1,-2.52902E-1,-2.52902E-1,1.3631643E-1,1.0461205E-1,-2.2102308E-1,1.0278948E-1,3.848101E-2,3.4143503E0,-2.2102308E-1,-2.8582574E-3,2.0410159E-1,2.9324133E0,1.6875306E-2,-8.930665E-1,-5.4060477E-1,3.848101E-2,-3.3372012E-1,-3.213349E-1,-4.8337206E-1,1.0430383E-2,9.0916E-3,7.1807265E-2,1.3729808E-2,2.0293541E-2,6.889173E-2,1.1228382E-2,1.0183986E-1,-1.1170383E-1,7.509204E-2,9.780916E-2,7.893005E-2,7.148304E-2,1.511641E-2,5.0565362E-2,8.8908836E-2,-2.1359289E-2,3.8686104E-2,2.2963455E-2,5.4656472E-2,5.6143958E-2,8.471015E-2],"split_indices":[37,16,0,5,31,31,17,0,4,0,16,9,4,36,4,34,36,1,3,16,26,7,5,36,36,0,0,0,0,0,0,0,0,0,0,0,0,0,0,0,0,0,0,0,0],"split_type":[0,0,0,0,0,0,0,0,0,0,0,0,0,0,0,0,0,0,0,0,0,0,0,0,0,0,0,0,0,0,0,0,0,0,0,0,0,0,0,0,0,0,0,0,0],"sum_hessian":[1.7602475E5,2.0521885E4,1.5550288E5,7.617053E3,1.290483E4,6.118589E3,1.4984646E3,5.6951843E2,1.2335312E4,7.779271E2,5.3406616E3,1.0609913E3,4.374733E2,1.0287097E4,2.0482148E3,3.1448608E3,2.195801E3,1.0571326E3,3.8587327E0,2.7522015E2,1.6225313E2,1.01598785E3,9.271109E3,1.308869E3,7.3934595E2,2.6345227E3,5.103379E2,1.4912633E3,7.045377E2,1.2080731E0,1.0559244E3,1.3387319E0,2.5200007E0,1.61652E2,1.1356816E2,1.4969249E2,1.2560641E1,5.532707E2,4.6271713E2,7.7747705E3,1.4963389E3,8.1123364E2,4.9763535E2,2.8600052E2,4.5334543E2],"tree_param":{"num_deleted":"0","num_feature":"39","num_nodes":"45","size_leaf_vector":"1"}},{"base_weights":[9.326715E-1,2.8126773E-1,1.02476396E-1,6.284692E-1,8.623422E-2,5.529827E-1,9.47528E-1,1.0413694E-1,4.5806754E-2,1.024911E-1,4.8743093E-1,1.0089679E0,7.9931307E-1,-8.047827E-3,6.707806E-1,6.38581E-1,3.7346327E-1,1.0129896E0,1.1227531E-3,9.806272E-2,7.200076E-1,-1.0401791E-1,4.5417407E-1,8.617844E-1,4.7405943E-1,7.8366354E-2,1.6099362E-2,2.5525678E-2,6.5884456E-2,1.0678339E-2,1.0140065E-1,-9.880331E-2,7.336487E-2,8.683761E-2,5.9242785E-2,-1.8920226E-2,3.5909995E-2,3.198264E-2,7.0125945E-2,9.507971E-2,5.6381803E-2,9.945467E-3,8.46475E-2],"categories":[],"categories_nodes":[],"categories_segments":[],"categories_sizes":[],"default_left":[0,0,0,0,0,0,0,0,0,0,0,0,0,0,0,0,0,0,0,0,0,0,0,0,0,0,0,0,0,0,0,0,0,0,0,0,0,0,0,0,0,0,0],"id":16,"left_children":[1,3,-1,5,7,9,11,-1,13,-1,15,17,19,21,23,25,27,29,31,-1,33,35,37,39,41,-1,-1,-1,-1,-1,-1,-1,-1,-1,-1,-1,-1,-1,-1,-1,-1,-1,-1],"loss_changes":[9.657844E3,1.3504159E3,0E0,1.722373E2,4.9309076E2,1.7902344E2,1.1678223E1,0E0,4.1243076E2,0E0,8.756787E1,3.9119263E0,5.14032E0,5.0052774E2,3.611914E1,1.5160248E2,9.7946075E1,7.7770996E-1,4.2305207E0,0E0,4.911026E0,3.6866913E2,6.4173615E1,1.2513519E1,6.703691E1,0E0,0E0,0E0,0E0,0E0,0E0,0E0,0E0,0E0,0E0,0E0,0E0,0E0,0E0,0E0,0E0,0E0,0E0],"parents":[2147483647,0,0,1,1,3,3,4,4,5,5,6,6,8,8,10,10,11,11,12,12,13,13,14,14,15,15,16,16,17,17,18,18,20,20,21,21,22,22,23,23,24,24],"right_children":[2,4,-1,6,8,10,12,-1,14,-1,16,18,20,22,24,26,28,30,32,-1,34,36,38,40,42,-1,-1,-1,-1,-1,-1,-1,-1,-1,-1,-1,-1,-1,-1,-1,-1,-1,-1],"split_conditions":[-2.8958793E0,9.108198E-1,1.02476396E-1,-2.2418998E-1,-2.52902E-1,-2.52902E-1,1.3631643E-1,1.0413694E-1,-4.404414E-1,1.024911E-1,-3.2141834E-1,3.4143503E0,-3.2141834E-1,-2.2102308E-1,5.1469994E-1,3.0097778E0,1.6875306E-2,-8.930665E-1,-5.4060477E-1,9.806272E-2,6.0779417E-1,-4.8337206E-1,2.0410159E-1,1.4067588E-2,-3.213349E-1,7.8366354E-2,1.6099362E-2,2.5525678E-2,6.5884456E-2,1.0678339E-2,1.0140065E-1,-9.880331E-2,7.336487E-2,8.683761E-2,5.9242785E-2,-1.8920226E-2,3.5909995E-2,3.198264E-2,7.0125945E-2,9.507971E-2,5.6381803E-2,9.945467E-3,8.46475E-2],"split_indices":[37,16,0,5,31,31,17,0,3,0,16,9,16,4,2,32,36,1,3,0,15,5,4,30,7,0,0,0,0,0,0,0,0,0,0,0,0,0,0,0,0,0,0],"split_type":[0,0,0,0,0,0,0,0,0,0,0,0,0,0,0,0,0,0,0,0,0,0,0,0,0,0,0,0,0,0,0,0,0,0,0,0,0,0,0,0,0,0,0],"sum_hessian":[1.6099634E5,1.9942166E4,1.4105417E5,7.1720884E3,1.2770077E4,5.802096E3,1.3699923E3,5.175576E2,1.225252E4,7.05846E2,5.09625E3,9.644067E2,4.0558566E2,1.128138E4,9.711399E2,2.1887754E3,2.9074746E3,9.6056854E2,3.838169E0,1.1995966E2,2.8562598E2,9.342411E3,1.9389688E3,4.910149E2,4.8012497E2,1.6782975E3,5.104779E2,2.0572463E3,8.5022833E2,1.1954355E0,9.593731E2,1.4846246E0,2.3535445E0,1.2936954E2,1.5625645E2,7.8914717E3,1.4509391E3,1.2575149E3,6.814539E2,3.7638495E2,1.1462996E2,2.3999063E2,2.4013432E2],"tree_param":{"num_deleted":"0","num_feature":"39","num_nodes":"43","size_leaf_vector":"1"}},{"base_weights":[9.220817E-1,2.6136047E-1,1.0223504E-1,6.018401E-1,7.9075605E-2,5.25508E-1,9.371082E-1,1.0370417E-1,4.1997347E-2,1.0221993E-1,4.6007478E-1,1.0042638E0,7.7854437E-1,7.015609E-1,-3.1711352E-3,5.713182E-1,3.0740944E-1,1.0086708E0,-1.6605888E-3,9.730177E-2,6.956237E-1,8.3480304E-1,4.6099192E-1,-8.7554775E-2,4.26293E-1,6.7472085E-2,1.2773516E-2,1.6453462E-2,6.3462265E-2,1.0154827E-2,1.00978486E-1,-8.940283E-2,7.1920566E-2,8.511844E-2,5.6523483E-2,9.471813E-2,6.618115E-2,1.7461283E-2,8.215761E-2,-1.5479232E-2,4.869354E-2,2.9510109E-2,6.749062E-2],"categories":[],"categories_nodes":[],"categories_segments":[],"categories_sizes":[],"default_left":[0,0,0,0,0,0,0,0,0,0,0,0,0,0,0,0,0,0,0,0,0,0,0,0,0,0,0,0,0,0,0,0,0,0,0,0,0,0,0,0,0,0,0],"id":17,"left_children":[1,3,-1,5,7,9,11,-1,13,-1,15,17,19,21,23,25,27,29,31,-1,33,35,37,39,41,-1,-1,-1,-1,-1,-1,-1,-1,-1,-1,-1,-1,-1,-1,-1,-1,-1,-1],"loss_changes":[9.760336E3,1.2048535E3,0E0,1.7274585E2,4.4911917E2,1.78807E2,1.257251E1,0E0,3.6272202E2,0E0,8.26322E1,3.8918457E0,5.4117584E0,2.4628662E1,4.1302286E2,1.2923529E2,9.608356E1,7.803955E-1,3.7475495E0,0E0,4.959091E0,9.112244E0,2.8810211E1,3.6801315E2,6.0845E1,0E0,0E0,0E0,0E0,0E0,0E0,0E0,0E0,0E0,0E0,0E0,0E0,0E0,0E0,0E0,0E0,0E0,0E0],"parents":[2147483647,0,0,1,1,3,3,4,4,5,5,6,6,8,8,10,10,11,11,12,12,13,13,14,14,15,15,16,16,17,17,18,18,20,20,21,21,22,22,23,23,24,24],"right_children":[2,4,-1,6,8,10,12,-1,14,-1,16,18,20,22,24,26,28,30,32,-1,34,36,38,40,42,-1,-1,-1,-1,-1,-1,-1,-1,-1,-1,-1,-1,-1,-1,-1,-1,-1,-1],"split_conditions":[-2.8958793E0,9.108198E-1,1.0223504E-1,-2.2418998E-1,-2.52902E-1,-2.52902E-1,1.3631643E-1,1.0370417E-1,-2.9344915E-3,1.0221993E-1,3.848101E-2,3.4143503E0,-3.2141834E-1,2.9397082E0,-2.2102308E-1,3.0097778E0,1.6875306E-2,-8.930665E-1,5.1469994E-1,9.730177E-2,6.0779417E-1,1.3621103E0,-3.213349E-1,1.2281587E0,2.0410159E-1,6.7472085E-2,1.2773516E-2,1.6453462E-2,6.3462265E-2,1.0154827E-2,1.00978486E-1,-8.940283E-2,7.1920566E-2,8.511844E-2,5.6523483E-2,9.471813E-2,6.618115E-2,1.7461283E-2,8.215761E-2,-1.5479232E-2,4.869354E-2,2.9510109E-2,6.749062E-2],"split_indices":[37,16,0,5,31,31,17,0,36,0,16,9,16,2,4,32,36,1,2,0,15,32,7,7,4,0,0,0,0,0,0,0,0,0,0,0,0,0,0,0,0,0,0],"split_type":[0,0,0,0,0,0,0,0,0,0,0,0,0,0,0,0,0,0,0,0,0,0,0,0,0,0,0,0,0,0,0,0,0,0,0,0,0,0,0,0,0,0,0],"sum_hessian":[1.4732966E5,1.9412762E4,1.279169E5,6.7683125E3,1.2644448E4,5.5152065E3,1.2531058E3,4.7016412E2,1.2174284E4,6.402866E2,4.87492E3,8.7653784E2,3.7656796E2,7.793566E2,1.1394928E4,2.8184463E3,2.0564736E3,8.7271173E2,3.8261569E0,1.0935774E2,2.672102E2,4.9997113E2,2.793855E2,9.524328E3,1.8706E3,2.2852222E3,5.33224E2,1.4324915E3,6.2398224E2,1.1835319E0,8.715282E2,1.6023624E0,2.2237945E0,1.1932326E2,1.4788696E2,3.0037027E2,1.9960086E2,1.565424E2,1.2284309E2,8.5270625E3,9.972652E2,1.2258907E3,6.4470917E2],"tree_param":{"num_deleted":"0","num_feature":"39","num_nodes":"43","size_leaf_vector":"1"}},{"base_weights":[9.1104597E-1,2.4242981E-1,1.0201768E-1,5.321704E-1,4.561613E-2,4.5642853E-1,9.0814644E-1,1.03412166E-1,1.4388236E-2,1.0208007E-1,3.9106718E-1,9.931481E-1,7.3516077E-1,3.0522743E-1,-9.368831E-2,5.4408973E-1,2.5650132E-1,1.0022336E0,-4.9902487E-1,9.6525244E-2,6.620131E-1,1.3568304E-1,7.861286E-1,-1.9204737E-1,3.593728E-1,6.720886E-2,1.803766E-2,1.5445285E-2,6.92457E-2,9.656611E-3,1.0033672E-1,7.0963375E-2,-1.3876353E-1,7.771378E-2,5.5335667E-2,2.8279653E-2,-4.214899E-2,8.1547126E-2,-1.05592184E-1,-2.8036937E-2,2.6664242E-2,1.8540788E-2,6.429117E-2],"categories":[],"categories_nodes":[],"categories_segments":[],"categories_sizes":[],"default_left":[0,0,0,0,0,0,0,0,0,0,0,0,0,0,0,0,0,0,0,0,0,0,0,0,0,0,0,0,0,0,0,0,0,0,0,0,0,0,0,0,0,0,0],"id":18,"left_children":[1,3,-1,5,7,9,11,-1,13,-1,15,17,19,21,23,25,27,29,31,-1,33,35,37,39,41,-1,-1,-1,-1,-1,-1,-1,-1,-1,-1,-1,-1,-1,-1,-1,-1,-1,-1],"loss_changes":[9.843617E3,1.0795319E3,0E0,2.1765527E2,3.480199E2,2.3478918E2,1.8135132E1,0E0,3.436007E2,0E0,1.1755365E2,1.2124451E1,6.5404816E0,2.4136023E2,3.5522418E2,1.2434302E2,1.3527606E2,7.7838135E-1,7.274971E0,0E0,3.6586304E0,1.7969398E2,4.257431E1,2.6538403E2,7.001976E1,0E0,0E0,0E0,0E0,0E0,0E0,0E0,0E0,0E0,0E0,0E0,0E0,0E0,0E0,0E0,0E0,0E0,0E0],"parents":[2147483647,0,0,1,1,3,3,4,4,5,5,6,6,8,8,10,10,11,11,12,12,13,13,14,14,15,15,16,16,17,17,18,18,20,20,21,21,22,22,23,23,24,24],"right_children":[2,4,-1,6,8,10,12,-1,14,-1,16,18,20,22,24,26,28,30,32,-1,34,36,38,40,42,-1,-1,-1,-1,-1,-1,-1,-1,-1,-1,-1,-1,-1,-1,-1,-1,-1,-1],"split_conditions":[-2.8958793E0,1.3215659E0,1.0201768E-1,-2.2418998E-1,-2.52902E-1,-2.52902E-1,1.3631643E-1,1.03412166E-1,-1.7634054E-3,1.0208007E-1,3.848101E-2,3.4143503E0,-3.2141834E-1,6.603851E-2,-2.2102308E-1,2.7102017E0,2.5333898E-2,-8.930665E-1,-3.213349E-1,9.6525244E-2,6.0779417E-1,4.1463118E0,5.934878E0,-4.8337206E-1,2.0410159E-1,6.720886E-2,1.803766E-2,1.5445285E-2,6.92457E-2,9.656611E-3,1.0033672E-1,7.0963375E-2,-1.3876353E-1,7.771378E-2,5.5335667E-2,2.8279653E-2,-4.214899E-2,8.1547126E-2,-1.05592184E-1,-2.8036937E-2,2.6664242E-2,1.8540788E-2,6.429117E-2],"split_indices":[37,16,0,5,31,31,17,0,36,0,16,9,16,7,4,15,36,1,7,0,15,33,32,5,4,0,0,0,0,0,0,0,0,0,0,0,0,0,0,0,0,0,0],"split_type":[0,0,0,0,0,0,0,0,0,0,0,0,0,0,0,0,0,0,0,0,0,0,0,0,0,0,0,0,0,0,0,0,0,0,0,0,0,0,0,0,0,0,0],"sum_hessian":[1.3490825E5,1.8930309E4,1.15977945E5,7.656717E3,1.1273592E4,6.3747188E3,1.2819983E3,3.442543E2,1.0929337E4,6.6012836E2,5.7145903E3,8.564266E2,4.2557175E2,2.9605447E3,7.9687925E3,2.6724973E3,3.042093E3,8.515699E2,4.856705E0,9.971486E1,3.2585687E2,2.1898005E3,7.707442E2,6.54784E3,1.4209526E3,1.9761853E3,6.9631195E2,2.4661672E3,5.7592584E2,1.1723143E0,8.503976E2,2.1431184E0,2.713587E0,1.5523198E2,1.706249E2,1.732778E3,4.5702264E2,7.592078E2,1.1536366E1,5.4909336E3,1.056906E3,8.816632E2,5.392894E2],"tree_param":{"num_deleted":"0","num_feature":"39","num_nodes":"43","size_leaf_vector":"1"}},{"base_weights":[8.995767E-1,2.24656E-1,1.0182183E-1,6.037799E-1,8.865656E-2,6.651677E-1,1.197549E-1,1.0284559E-1,5.612974E-2,9.006289E-1,5.327604E-1,6.875439E-1,-1.1739236E-1,-2.7322004E-2,4.133391E-1,9.8248255E-1,5.6108737E-1,1.01572566E-1,4.7431165E-1,8.0185694E-1,2.6346678E-2,-2.5701312E-2,-2.0457923E0,-2.0605934E-1,1.7048234E-1,3.3440205E-1,6.612777E-1,9.960017E-2,4.6105806E-2,1.4021662E-2,9.7913936E-2,6.21306E-2,1.6797572E-2,4.812429E-2,9.28856E-2,-9.775311E-2,7.397504E-2,2.0177492E-3,-1.8374638E-1,-3.224923E-1,6.7354426E-2,-3.5504036E-2,3.642382E-2,5.65022E-3,7.218068E-2,5.145957E-2,1.8854473E-2,6.0657453E-2,9.8098494E-2],"categories":[],"categories_nodes":[],"categories_segments":[],"categories_sizes":[],"default_left":[0,0,0,0,0,0,0,0,0,0,0,0,0,0,0,0,0,0,0,0,0,0,0,0,0,0,0,0,0,0,0,0,0,0,0,0,0,0,0,0,0,0,0,0,0,0,0,0,0],"id":19,"left_children":[1,3,-1,5,7,9,11,-1,13,15,17,19,21,23,25,27,29,-1,31,33,35,37,39,41,43,45,47,-1,-1,-1,-1,-1,-1,-1,-1,-1,-1,-1,-1,-1,-1,-1,-1,-1,-1,-1,-1,-1,-1],"loss_changes":[9.898125E3,9.529129E2,0E0,1.4490405E2,4.1579865E2,1.3451636E2,7.419375E1,0E0,3.9200848E2,4.2723755E1,7.782361E1,1.2246567E1,6.874821E1,3.7694034E2,4.85195E1,8.375366E0,5.3487816E1,0E0,1.1140588E2,5.186203E0,1.8597704E1,3.0996387E1,5.8761803E1,4.759807E2,3.1798816E2,4.9603455E1,9.904999E0,0E0,0E0,0E0,0E0,0E0,0E0,0E0,0E0,0E0,0E0,0E0,0E0,0E0,0E0,0E0,0E0,0E0,0E0,0E0,0E0,0E0,0E0],"parents":[2147483647,0,0,1,1,3,3,4,4,5,5,6,6,8,8,9,9,10,10,11,11,12,12,13,13,14,14,15,15,16,16,18,18,19,19,20,20,21,21,22,22,23,23,24,24,25,25,26,26],"right_children":[2,4,-1,6,8,10,12,-1,14,16,18,20,22,24,26,28,30,-1,32,34,36,38,40,42,44,46,48,-1,-1,-1,-1,-1,-1,-1,-1,-1,-1,-1,-1,-1,-1,-1,-1,-1,-1,-1,-1,-1,-1],"split_conditions":[-2.8958793E0,4.2539266E-1,1.0182183E-1,3.0097778E0,-2.52902E-1,7.0055056E-4,-4.5453027E-1,1.0284559E-1,-4.8337206E-1,1.4488482E0,-2.52902E-1,5.5189686E0,4.9124413E0,-5.376256E-1,-2.2418998E-1,4.4809437E0,1.3130726E0,1.01572566E-1,6.505557E-1,-3.8930464E-1,6.603851E-2,-3.2141834E-1,2.0388467E0,-2.2102308E-1,4.534119E-1,-5.43372E-1,-5.376256E-1,9.960017E-2,4.6105806E-2,1.4021662E-2,9.7913936E-2,6.21306E-2,1.6797572E-2,4.812429E-2,9.28856E-2,-9.775311E-2,7.397504E-2,2.0177492E-3,-1.8374638E-1,-3.224923E-1,6.7354426E-2,-3.5504036E-2,3.642382E-2,5.65022E-3,7.218068E-2,5.145957E-2,1.8854473E-2,6.0657453E-2,9.8098494E-2],"split_indices":[37,16,0,32,31,36,3,0,5,0,31,34,32,3,5,17,32,0,23,30,7,16,0,4,7,3,3,0,0,0,0,0,0,0,0,0,0,0,0,0,0,0,0,0,0,0,0,0,0],"split_type":[0,0,0,0,0,0,0,0,0,0,0,0,0,0,0,0,0,0,0,0,0,0,0,0,0,0,0,0,0,0,0,0,0,0,0,0,0,0,0,0,0,0,0,0,0,0,0,0,0],"sum_hessian":[1.2361453E5,1.8481438E4,1.0513309E5,4.878438E3,1.3603E4,4.329024E3,5.4941394E2,4.5403122E2,1.3148969E4,1.5560615E3,2.7729624E3,1.613067E2,3.8810727E2,1.0659585E4,2.4893835E3,1.2522795E3,3.0378192E2,2.97589E2,2.4753733E3,1.3734814E2,2.3958559E1,3.714586E2,1.6648685E1,5.5996562E3,5.059929E3,1.890005E3,5.9937854E2,1.2197448E3,3.2534843E1,1.5204605E2,1.5173587E2,1.6720278E3,8.033455E2,4.032796E1,9.702018E1,9.799208E0,1.4159351E1,3.63249E2,8.2095995E0,1.1483436E1,5.1652503E0,4.440123E3,1.159533E3,4.193974E3,8.6595465E2,8.443537E2,1.0456512E3,5.1428046E2,8.50981E1],"tree_param":{"num_deleted":"0","num_feature":"39","num_nodes":"49","size_leaf_vector":"1"}},{"base_weights":[8.874631E-1,2.0780684E-1,1.0164525E-1,4.8151287E-1,3.5386425E-2,4.0682E-1,8.833294E-1,6.67996E-1,-7.1826074E-3,1.0163789E-1,3.4474716E-1,9.827848E-1,6.9086826E-1,8.1562775E-1,4.160553E-1,1.0258462E-1,-3.442704E-2,5.424646E-1,2.4542232E-1,9.9356365E-1,-5.340602E-1,9.5202096E-2,6.1056346E-1,9.301389E-1,6.3304055E-1,5.8087724E-1,-1.4354187E-1,-8.539596E-2,4.43013E-1,7.524984E-2,1.7150735E-2,1.3022943E-2,5.69141E-2,5.1888265E-3,9.949112E-2,6.803046E-2,-1.3212425E-1,7.3651016E-2,4.9412396E-2,8.354794E-2,9.87481E-2,-1.6295468E-2,8.854257E-2,2.1200806E-2,9.6371725E-2,-3.0247855E-1,4.7248076E-3,-1.5264367E-2,3.2611866E-2,1.7557338E-2,7.964492E-2],"categories":[],"categories_nodes":[],"categories_segments":[],"categories_sizes":[],"default_left":[0,0,0,0,0,0,0,0,0,0,0,0,0,0,0,0,0,0,0,0,0,0,0,0,0,0,0,0,0,0,0,0,0,0,0,0,0,0,0,0,0,0,0,0,0,0,0,0,0,0,0],"id":20,"left_children":[1,3,-1,5,7,9,11,13,15,-1,17,19,21,23,25,-1,27,29,31,33,35,-1,37,39,41,43,45,47,49,-1,-1,-1,-1,-1,-1,-1,-1,-1,-1,-1,-1,-1,-1,-1,-1,-1,-1,-1,-1,-1,-1],"loss_changes":[9.938805E3,8.534737E2,0E0,2.0941797E2,2.9883466E2,2.2273035E2,2.0276245E1,2.5683472E1,2.926816E2,0E0,1.0497949E2,1.2292786E1,7.3115234E0,8.612946E0,2.4114117E1,0E0,2.4659253E2,1.3925201E2,1.3284717E2,8.553467E-1,6.3729944E0,0E0,3.898178E0,6.31546E-1,3.4851265E1,2.8245468E1,3.3170155E1,2.5341095E2,9.225185E1,0E0,0E0,0E0,0E0,0E0,0E0,0E0,0E0,0E0,0E0,0E0,0E0,0E0,0E0,0E0,0E0,0E0,0E0,0E0,0E0,0E0,0E0],"parents":[2147483647,0,0,1,1,3,3,4,4,5,5,6,6,7,7,8,8,10,10,11,11,12,12,13,13,14,14,16,16,17,17,18,18,19,19,20,20,22,22,23,23,24,24,25,25,26,26,27,27,28,28],"right_children":[2,4,-1,6,8,10,12,14,16,-1,18,20,22,24,26,-1,28,30,32,34,36,-1,38,40,42,44,46,48,50,-1,-1,-1,-1,-1,-1,-1,-1,-1,-1,-1,-1,-1,-1,-1,-1,-1,-1,-1,-1,-1,-1],"split_conditions":[-2.8958793E0,1.3215659E0,1.0164525E-1,-2.2418998E-1,-2.9417165E-3,-2.52902E-1,1.3631643E-1,2.9397082E0,-2.52902E-1,1.0163789E-1,-3.2141834E-1,3.4143503E0,-3.2141834E-1,1.3621103E0,1.3621103E0,1.0258462E-1,1.2281587E0,2.7102017E0,-2.2102308E-1,-8.930665E-1,-6.650504E-1,9.5202096E-2,6.0779417E-1,-3.184275E-3,-3.213349E-1,-4.4406807E-1,-5.29858E-1,-2.2102308E-1,3.793311E0,7.524984E-2,1.7150735E-2,1.3022943E-2,5.69141E-2,5.1888265E-3,9.949112E-2,6.803046E-2,-1.3212425E-1,7.3651016E-2,4.9412396E-2,8.354794E-2,9.87481E-2,-1.6295468E-2,8.854257E-2,2.1200806E-2,9.6371725E-2,-3.0247855E-1,4.7248076E-3,-1.5264367E-2,3.2611866E-2,1.7557338E-2,7.964492E-2],"split_indices":[37,16,0,5,36,31,17,2,31,0,16,9,16,32,32,0,7,15,4,1,30,0,15,36,7,33,30,4,2,0,0,0,0,0,0,0,0,0,0,0,0,0,0,0,0,0,0,0,0,0,0],"split_type":[0,0,0,0,0,0,0,0,0,0,0,0,0,0,0,0,0,0,0,0,0,0,0,0,0,0,0,0,0,0,0,0,0,0,0,0,0,0,0,0,0,0,0,0,0,0,0,0,0,0,0],"sum_hessian":[1.13369414E5,1.8084305E4,9.528511E4,6.988589E3,1.1095716E4,5.894824E3,1.0937643E3,6.986425E2,1.0397073E4,5.4338464E2,5.35144E3,7.184135E2,3.7535077E2,4.3910132E2,2.595412E2,2.6621796E2,1.0130855E4,1.7879193E3,3.5635203E3,7.13687E2,4.7265368E0,8.572301E1,2.8962775E2,2.6734158E2,1.7175975E2,2.0046024E2,5.908095E1,9.154402E3,9.7645337E2,1.1409127E3,6.470066E2,2.6293042E3,9.3421625E2,1.0762776E0,7.126107E2,1.9122827E0,2.814254E0,1.3657556E2,1.5305219E2,1.06727585E2,1.6061398E2,4.143443E1,1.3032532E2,1.02884254E2,9.757598E1,2.7467332E0,5.633422E1,7.869101E3,1.2853008E3,5.567022E2,4.1975116E2],"tree_param":{"num_deleted":"0","num_feature":"39","num_nodes":"51","size_leaf_vector":"1"}},{"base_weights":[8.7478304E-1,1.919409E-1,1.0148603E-1,5.5238724E-1,7.357501E-2,6.1667275E-1,8.660814E-2,1.0225999E-1,4.606564E-2,8.770115E-1,4.781821E-1,6.4318824E-1,-1.2618245E-1,-2.7684914E-2,3.762071E-1,9.7117126E-1,5.10205E-1,1.0114987E-1,4.2022952E-1,-6.159571E-2,7.543983E-1,-4.3697827E-2,-1.6478804E0,-1.883919E-1,1.5470932E-1,3.3947596E-1,9.187391E-1,9.861283E-2,3.760948E-2,-9.566793E-3,9.875316E-2,1.8954972E-2,6.2152386E-2,8.598797E-2,-6.574516E-2,-8.853363E-2,8.083389E-2,2.0591488E-2,-3.326697E-2,-2.4045973E-1,7.650592E-2,-3.0761275E-2,3.0991673E-2,5.460205E-3,6.843766E-2,2.6151484E-2,5.9669223E-2,9.361927E-2,1.8228007E-2],"categories":[],"categories_nodes":[],"categories_segments":[],"categories_sizes":[],"default_left":[0,0,0,0,0,0,0,0,0,0,0,0,0,0,0,0,0,0,0,0,0,0,0,0,0,0,0,0,0,0,0,0,0,0,0,0,0,0,0,0,0,0,0,0,0,0,0,0,0],"id":21,"left_children":[1,3,-1,5,7,9,11,-1,13,15,17,19,21,23,25,27,29,-1,31,33,35,37,39,41,43,45,47,-1,-1,-1,-1,-1,-1,-1,-1,-1,-1,-1,-1,-1,-1,-1,-1,-1,-1,-1,-1,-1,-1],"loss_changes":[9.953258E3,7.5573566E2,0E0,1.3106567E2,3.481277E2,1.383086E2,6.311697E1,0E0,3.156051E2,4.560974E1,7.72702E1,1.1597153E1,4.8361137E1,3.1061603E2,4.685501E1,9.07373E0,7.9561104E1,0E0,1.052493E2,1.2100768E1,1.1980446E1,2.6544672E1,3.8017582E1,3.3476126E2,2.6315094E2,4.4328934E1,1.7509918E0,0E0,0E0,0E0,0E0,0E0,0E0,0E0,0E0,0E0,0E0,0E0,0E0,0E0,0E0,0E0,0E0,0E0,0E0,0E0,0E0,0E0,0E0],"parents":[2147483647,0,0,1,1,3,3,4,4,5,5,6,6,8,8,9,9,10,10,11,11,12,12,13,13,14,14,15,15,16,16,18,18,19,19,20,20,21,21,22,22,23,23,24,24,25,25,26,26],"right_children":[2,4,-1,6,8,10,12,-1,14,16,18,20,22,24,26,28,30,-1,32,34,36,38,40,42,44,46,48,-1,-1,-1,-1,-1,-1,-1,-1,-1,-1,-1,-1,-1,-1,-1,-1,-1,-1,-1,-1,-1,-1],"split_conditions":[-2.8958793E0,4.2539266E-1,1.0148603E-1,3.0097778E0,-2.52902E-1,7.0055056E-4,-4.5453027E-1,1.0225999E-1,-4.8337206E-1,6.0779417E-1,-2.52902E-1,-3.213349E-1,4.9124413E0,-5.376256E-1,3.4586694E-2,4.534119E-1,1.3130726E0,1.0114987E-1,-2.9602534E-1,3.8443198E0,6.1668617E-1,2.4175026E0,-2.4299696E-1,-2.2102308E-1,4.534119E-1,-2.2418998E-1,6.342927E0,9.861283E-2,3.760948E-2,-9.566793E-3,9.875316E-2,1.8954972E-2,6.2152386E-2,8.598797E-2,-6.574516E-2,-8.853363E-2,8.083389E-2,2.0591488E-2,-3.326697E-2,-2.4045973E-1,7.650592E-2,-3.0761275E-2,3.0991673E-2,5.460205E-3,6.843766E-2,2.6151484E-2,5.9669223E-2,9.361927E-2,1.8228007E-2],"split_indices":[37,16,0,32,31,36,3,0,5,15,31,7,32,3,36,7,32,0,22,34,0,0,3,4,7,5,17,0,0,0,0,0,0,0,0,0,0,0,0,0,0,0,0,0,0,0,0,0,0],"split_type":[0,0,0,0,0,0,0,0,0,0,0,0,0,0,0,0,0,0,0,0,0,0,0,0,0,0,0,0,0,0,0,0,0,0,0,0,0,0,0,0,0,0,0,0,0,0,0,0,0],"sum_hessian":[1.0405939E5,1.7713387E4,8.6346E4,4.377973E3,1.3335414E4,3.8467334E3,5.312396E2,3.7464505E2,1.296077E4,1.3338993E3,2.5128342E3,1.4636949E2,3.8487015E2,1.0594886E4,2.3658835E3,1.0601178E3,2.7378156E2,2.4467993E2,2.2681543E3,2.0009184E1,1.2636031E2,3.6605652E2,1.8813616E1,5.6322744E3,4.962612E3,2.217385E3,1.4849841E2,1.0334844E3,2.6633335E1,1.2099792E2,1.5278365E2,1.0578351E3,1.2103191E3,7.683599E0,1.2325583E1,3.533472E0,1.2282684E2,1.9655797E2,1.6949857E2,1.4324726E1,4.48889E0,4.545211E3,1.0870637E3,4.174696E3,7.8791565E2,1.7031765E3,5.142085E2,1.4479564E2,3.7027795E0],"tree_param":{"num_deleted":"0","num_feature":"39","num_nodes":"49","size_leaf_vector":"1"}},{"base_weights":[8.6138046E-1,1.7704004E-1,1.01342395E-1,4.3231788E-1,2.69535E-2,3.6007953E-1,8.560964E-1,6.3185185E-1,-1.1140114E-2,1.0126891E-1,3.0202577E-1,9.71959E-1,6.439215E-1,7.897293E-1,3.7469035E-1,1.019693E-1,-3.3656728E-2,6.4074E-1,2.480902E-1,9.847324E-1,-5.5701524E-1,9.382606E-2,5.564251E-1,9.1602445E-1,5.917421E-1,5.387606E-1,-1.6341913E-1,-7.846034E-2,4.0816864E-1,6.660124E-2,-9.092191E-2,4.884964E-2,1.1670117E-2,9.908091E-2,6.34436E-2,-1.7018916E-1,2.9829998E-2,8.579442E-2,4.9686328E-2,8.133068E-2,9.794752E-2,-1.5234649E-2,8.575257E-2,1.8481985E-2,9.348223E-2,-1.0520541E-1,3.480361E-2,-1.1258534E-2,5.8119144E-2,6.1611366E-2,-1.8497391E-3],"categories":[],"categories_nodes":[],"categories_segments":[],"categories_sizes":[],"default_left":[0,0,0,0,0,0,0,0,0,0,0,0,0,0,0,0,0,0,0,0,0,0,0,0,0,0,0,0,0,0,0,0,0,0,0,0,0,0,0,0,0,0,0,0,0,0,0,0,0,0,0],"id":22,"left_children":[1,3,-1,5,7,9,11,13,15,-1,17,19,21,23,25,-1,27,29,31,33,35,-1,37,39,41,43,45,47,49,-1,-1,-1,-1,-1,-1,-1,-1,-1,-1,-1,-1,-1,-1,-1,-1,-1,-1,-1,-1,-1,-1],"loss_changes":[9.948719E3,6.660005E2,0E0,1.9671875E2,2.5228061E2,2.080863E2,2.2398682E1,2.6038391E1,2.3911635E2,0E0,9.214459E1,1.2341431E1,8.073685E0,9.484711E0,2.2039516E1,0E0,1.9959349E2,2.7766876E1,1.3766559E2,6.468506E-1,6.0319557E0,0E0,4.2384796E0,7.871094E-1,3.1574608E1,2.6570156E1,2.7119228E1,2.0612495E2,8.23759E1,0E0,0E0,0E0,0E0,0E0,0E0,0E0,0E0,0E0,0E0,0E0,0E0,0E0,0E0,0E0,0E0,0E0,0E0,0E0,0E0,0E0,0E0],"parents":[2147483647,0,0,1,1,3,3,4,4,5,5,6,6,7,7,8,8,10,10,11,11,12,12,13,13,14,14,16,16,17,17,18,18,19,19,20,20,22,22,23,23,24,24,25,25,26,26,27,27,28,28],"right_children":[2,4,-1,6,8,10,12,14,16,-1,18,20,22,24,26,-1,28,30,32,34,36,-1,38,40,42,44,46,48,50,-1,-1,-1,-1,-1,-1,-1,-1,-1,-1,-1,-1,-1,-1,-1,-1,-1,-1,-1,-1,-1,-1],"split_conditions":[-2.8958793E0,1.3215659E0,1.01342395E-1,-2.2418998E-1,-2.9417165E-3,-2.52902E-1,1.3631643E-1,2.9397082E0,-2.52902E-1,1.0126891E-1,-5.445427E-1,3.4143503E0,-3.2141834E-1,1.3621103E0,1.3621103E0,1.019693E-1,1.2281587E0,1.3130726E0,-3.2141834E-1,1.8692387E0,5.1469994E-1,9.382606E-2,-2.9536477E-1,-3.184275E-3,-3.213349E-1,-4.4406807E-1,-3.213349E-1,2.0410159E-1,7.885384E-3,6.660124E-2,-9.092191E-2,4.884964E-2,1.1670117E-2,9.908091E-2,6.34436E-2,-1.7018916E-1,2.9829998E-2,8.579442E-2,4.9686328E-2,8.133068E-2,9.794752E-2,-1.5234649E-2,8.575257E-2,1.8481985E-2,9.348223E-2,-1.0520541E-1,3.480361E-2,-1.1258534E-2,5.8119144E-2,6.1611366E-2,-1.8497391E-3],"split_indices":[37,16,0,5,36,31,17,2,31,0,3,9,16,32,32,0,7,32,16,15,2,0,32,36,7,33,7,4,36,0,0,0,0,0,0,0,0,0,0,0,0,0,0,0,0,0,0,0,0,0,0],"split_type":[0,0,0,0,0,0,0,0,0,0,0,0,0,0,0,0,0,0,0,0,0,0,0,0,0,0,0,0,0,0,0,0,0,0,0,0,0,0,0,0,0,0,0,0,0,0,0,0,0,0,0],"sum_hessian":[9.561597E4,1.7382104E4,7.823387E4,6.435044E3,1.0947061E4,5.4994443E3,9.355995E2,6.4762756E2,1.0299433E4,4.4790378E2,5.0515405E3,6.0283026E2,3.327692E2,3.9999216E2,2.4763542E2,2.1921603E2,1.0080217E4,6.924005E2,4.35914E3,5.9818884E2,4.6414533E0,7.40249E1,2.587443E2,2.4199675E2,1.5799539E2,1.8977237E2,5.7863045E1,9.152884E3,9.273324E2,6.818531E2,1.0547455E1,1.5395197E3,2.8196206E3,5.861914E2,1.1997428E1,1.5615151E0,3.0799384E0,4.0469875E1,2.1827441E2,9.768177E1,1.4431499E2,4.1694412E1,1.1630099E2,1.009896E2,8.878277E1,2.0751348E1,3.71117E1,8.703467E3,4.494169E2,6.2317194E2,3.041605E2],"tree_param":{"num_deleted":"0","num_feature":"39","num_nodes":"51","size_leaf_vector":"1"}},{"base_weights":[8.4727246E-1,1.6303177E-1,1.01212755E-1,5.0030416E-1,6.107948E-2,5.6829935E-1,3.566831E-2,1.0176041E-1,3.793071E-2,8.516894E-1,4.265229E-1,7.586248E-1,-1.2241043E-1,-2.4919864E-2,3.7902588E-1,9.601467E-1,4.555044E-1,3.5211435E-1,8.9039505E-1,-6.9512004E-1,8.3287627E-1,-2.337184E0,-6.788864E-2,-1.6930622E-1,1.4860886E-1,3.9860445E-1,-1.0810109E0,9.776178E-2,3.2669496E-2,-1.4135498E-2,9.7791135E-2,1.6602403E-2,6.0017224E-2,9.7234584E-2,4.2216178E-2,8.117148E-2,-3.139791E-1,4.1821048E-2,9.884782E-2,5.989747E-2,-3.77141E-1,6.1946582E-2,-1.9632142E-2,-2.3018919E-2,6.819153E-2,7.420373E-2,6.245475E-3,4.031071E-2,-1.7686765E-1,-2.783571E-1,-4.1109915E-3],"categories":[],"categories_nodes":[],"categories_segments":[],"categories_sizes":[],"default_left":[0,0,0,0,0,0,0,0,0,0,0,0,0,0,0,0,0,0,0,0,0,0,0,0,0,0,0,0,0,0,0,0,0,0,0,0,0,0,0,0,0,0,0,0,0,0,0,0,0,0,0],"id":23,"left_children":[1,3,-1,5,7,9,11,-1,13,15,17,19,21,23,25,27,29,31,33,35,37,39,41,43,45,47,49,-1,-1,-1,-1,-1,-1,-1,-1,-1,-1,-1,-1,-1,-1,-1,-1,-1,-1,-1,-1,-1,-1,-1,-1],"loss_changes":[9.920922E3,5.8719116E2,0E0,1.25210205E2,2.9035037E2,1.3856335E2,5.8045227E1,0E0,2.7454016E2,4.9064453E1,7.9306305E1,1.0415016E1,5.0191578E1,2.709781E2,5.7388336E1,9.680054E0,7.793201E1,9.1739456E1,1.1800156E1,2.0868149E1,5.20977E0,4.4319977E1,3.613756E1,3.0609216E2,2.5108609E2,1.9906982E1,4.7042686E1,0E0,0E0,0E0,0E0,0E0,0E0,0E0,0E0,0E0,0E0,0E0,0E0,0E0,0E0,0E0,0E0,0E0,0E0,0E0,0E0,0E0,0E0,0E0,0E0],"parents":[2147483647,0,0,1,1,3,3,4,4,5,5,6,6,8,8,9,9,10,10,11,11,12,12,13,13,14,14,15,15,16,16,17,17,18,18,19,19,20,20,21,21,22,22,23,23,24,24,25,25,26,26],"right_children":[2,4,-1,6,8,10,12,-1,14,16,18,20,22,24,26,28,30,32,34,36,38,40,42,44,46,48,50,-1,-1,-1,-1,-1,-1,-1,-1,-1,-1,-1,-1,-1,-1,-1,-1,-1,-1,-1,-1,-1,-1,-1,-1],"split_conditions":[-2.8958793E0,4.2539266E-1,1.01212755E-1,3.0097778E0,-2.52902E-1,7.0055056E-4,2.2897203E0,1.0176041E-1,-2.3316891E-1,6.0779417E-1,6.3644566E-2,6.1668617E-1,-3.8546315E-1,-5.376256E-1,4.1463118E0,4.534119E-1,1.3130726E0,-4.8337206E-1,1.3621103E0,-3.5442305E-1,1.024276E0,2.481931E0,-4.3757907E-1,3.4586694E-2,-2.9234284E-1,5.5791445E0,1.3824267E-3,9.776178E-2,3.2669496E-2,-1.4135498E-2,9.7791135E-2,1.6602403E-2,6.0017224E-2,9.7234584E-2,4.2216178E-2,8.117148E-2,-3.139791E-1,4.1821048E-2,9.884782E-2,5.989747E-2,-3.77141E-1,6.1946582E-2,-1.9632142E-2,-2.3018919E-2,6.819153E-2,7.420373E-2,6.245475E-3,4.031071E-2,-1.7686765E-1,-2.783571E-1,-4.1109915E-3],"split_indices":[37,16,0,32,31,36,15,0,15,15,38,0,2,3,33,7,32,5,32,2,33,34,3,36,2,10,36,0,0,0,0,0,0,0,0,0,0,0,0,0,0,0,0,0,0,0,0,0,0,0,0],"split_type":[0,0,0,0,0,0,0,0,0,0,0,0,0,0,0,0,0,0,0,0,0,0,0,0,0,0,0,0,0,0,0,0,0,0,0,0,0,0,0,0,0,0,0,0,0,0,0,0,0,0,0],"sum_hessian":[8.795151E4,1.7076498E4,7.0875016E4,3.9628687E3,1.311363E4,3.456778E3,5.0609058E2,3.0884778E2,1.2804782E4,1.1510308E3,2.3057473E3,9.0123085E1,4.1596747E2,1.0813248E4,1.991534E3,9.0253455E2,2.4849622E2,1.9885311E3,3.1721625E2,3.973114E0,8.614997E1,8.98809E0,4.069794E2,5.9022476E3,4.911001E3,1.965899E3,2.563501E1,8.7778143E2,2.4753172E1,1.1632371E2,1.3217252E2,1.1371344E3,8.513966E2,2.6905014E2,4.8166122E1,2.8712883E0,1.1018257E0,2.45129E1,6.163707E1,3.140731E0,5.847358E0,6.347054E1,3.4350885E2,5.508953E3,3.932941E2,6.216273E2,4.2893735E3,1.9626356E3,3.2634892E0,9.084616E0,1.6550394E1],"tree_param":{"num_deleted":"0","num_feature":"39","num_nodes":"51","size_leaf_vector":"1"}},{"base_weights":[8.322533E-1,1.4986743E-1,1.01095736E-1,2.783381E-1,-9.1851905E-2,1.7115264E-1,8.2708573E-1,-2.8766835E-1,-1.3840885E-2,1.3040064E-2,5.0848806E-1,6.3379556E-1,1.0232382E-1,4.4373176E-1,-3.6566228E-1,-1.8430121E-1,1.7121013E-1,1.0136068E-1,-4.643334E-2,4.2198905E-1,9.4416374E-1,8.547819E-1,-5.3312052E-2,-1.1790876E0,8.83794E-1,4.602427E-1,-4.2811528E-1,-3.3115292E-1,1.8987165E-1,3.0830863E-1,-2.316683E-1,-1.4276828E-2,3.6471203E-2,7.243278E-2,3.679684E-2,9.618654E-2,-1.1268391E-2,9.643271E-2,5.5064708E-2,-4.755991E-2,3.529387E-2,-2.689469E-1,-1.4295103E-2,9.676779E-2,-2.325594E-1,7.229813E-2,-3.2203946E-1,-7.431128E-2,-3.1520642E-2,-2.1507706E-2,-8.100131E-2,4.51255E-2,-1.1488518E-2,3.5711024E-2,-4.7251835E-2,8.4560096E-2,-3.9339468E-2],"categories":[],"categories_nodes":[],"categories_segments":[],"categories_sizes":[],"default_left":[0,0,0,0,0,0,0,0,0,0,0,0,0,0,0,0,0,0,0,0,0,0,0,0,0,0,0,0,0,0,0,0,0,0,0,0,0,0,0,0,0,0,0,0,0,0,0,0,0,0,0,0,0,0,0,0,0],"id":24,"left_children":[1,3,-1,5,7,9,11,13,15,17,19,21,-1,23,25,27,29,-1,31,33,35,37,39,41,43,45,47,49,51,53,55,-1,-1,-1,-1,-1,-1,-1,-1,-1,-1,-1,-1,-1,-1,-1,-1,-1,-1,-1,-1,-1,-1,-1,-1,-1,-1],"loss_changes":[9.879332E3,5.221827E2,0E0,6.4564795E2,8.9147026E1,4.8997922E2,6.73656E1,9.5004684E1,1.317108E2,3.7231802E2,1.1008423E2,1.3763885E2,0E0,1.1577681E2,7.771884E1,1.194859E2,1.1065526E2,0E0,2.3397003E2,3.9713287E1,9.178589E0,2.23143E1,3.8159973E1,5.3921722E1,3.6430008E1,1.0497121E2,4.9479736E1,8.660245E1,4.8899002E1,5.710611E1,8.899416E1,0E0,0E0,0E0,0E0,0E0,0E0,0E0,0E0,0E0,0E0,0E0,0E0,0E0,0E0,0E0,0E0,0E0,0E0,0E0,0E0,0E0,0E0,0E0,0E0,0E0,0E0],"parents":[2147483647,0,0,1,1,3,3,4,4,5,5,6,6,7,7,8,8,9,9,10,10,11,11,13,13,14,14,15,15,16,16,18,18,19,19,20,20,21,21,22,22,23,23,24,24,25,25,26,26,27,27,28,28,29,29,30,30],"right_children":[2,4,-1,6,8,10,12,14,16,18,20,22,-1,24,26,28,30,-1,32,34,36,38,40,42,44,46,48,50,52,54,56,-1,-1,-1,-1,-1,-1,-1,-1,-1,-1,-1,-1,-1,-1,-1,-1,-1,-1,-1,-1,-1,-1,-1,-1,-1,-1],"split_conditions":[-2.8958793E0,1.3621103E0,1.01095736E-1,2.8742304E-1,-3.213349E-1,-4.8337206E-1,1.3449471E0,1.167058E0,-5.376256E-1,-2.52902E-1,3.499211E-2,2.133131E0,1.0232382E-1,1.9460639E0,-3.5442305E-1,2.4983566E0,-1.8531445E-1,1.0136068E-1,-2.2102308E-1,-5.445427E-1,2.6658256E0,1.1722037E0,1.3375914E0,7.0914865E-1,5.934878E0,1.6790302E-1,-2.4672225E-3,1.2017543E-2,1.7130268E0,5.934878E0,-5.9110385E-1,-1.4276828E-2,3.6471203E-2,7.243278E-2,3.679684E-2,9.618654E-2,-1.1268391E-2,9.643271E-2,5.5064708E-2,-4.755991E-2,3.529387E-2,-2.689469E-1,-1.4295103E-2,9.676779E-2,-2.325594E-1,7.229813E-2,-3.2203946E-1,-7.431128E-2,-3.1520642E-2,-2.1507706E-2,-8.100131E-2,4.51255E-2,-1.1488518E-2,3.5711024E-2,-4.7251835E-2,8.4560096E-2,-3.9339468E-2],"split_indices":[37,32,0,33,7,5,32,0,3,31,5,34,0,33,2,2,31,0,4,3,16,16,32,0,32,25,36,36,0,32,2,0,0,0,0,0,0,0,0,0,0,0,0,0,0,0,0,0,0,0,0,0,0,0,0,0,0],"split_type":[0,0,0,0,0,0,0,0,0,0,0,0,0,0,0,0,0,0,0,0,0,0,0,0,0,0,0,0,0,0,0,0,0,0,0,0,0,0,0,0,0,0,0,0,0,0,0,0,0,0,0,0,0,0,0,0,0],"sum_hessian":[8.1014766E4,1.6813574E4,6.4201188E4,1.0978496E4,5.835078E3,9.185607E3,1.792889E3,1.6615964E3,4.173482E3,6.2549067E3,2.9307002E3,9.0516425E2,8.877248E2,1.5966106E2,1.5019354E3,2.1723857E3,2.0010961E3,3.500306E2,5.9048765E3,2.4468677E3,4.8383246E2,6.847062E2,2.2045807E2,3.3701294E1,1.2595976E2,1.0514072E2,1.3967947E3,1.5601776E3,6.122082E2,1.493199E3,5.078971E2,4.784483E3,1.1203933E3,3.6904047E2,2.0778271E3,4.759504E2,7.8820386E0,5.0179556E2,1.829106E2,1.08011856E2,1.1244621E2,1.3063255E1,2.0638037E1,1.234321E2,2.5276632E0,9.888545E1,6.2552686E0,3.670904E2,1.0297043E3,1.2569434E3,3.0323428E2,3.2929675E2,2.829114E2,1.4058746E3,8.732437E1,6.574397E1,4.4215314E2],"tree_param":{"num_deleted":"0","num_feature":"39","num_nodes":"57","size_leaf_vector":"1"}},{"base_weights":[8.1688774E-1,1.3815346E-1,1.0099007E-1,5.2668816E-1,6.194258E-2,6.552596E-1,9.91341E-2,1.0131186E-1,3.9667115E-2,9.3792284E-1,4.8804247E-1,4.2381433E-1,-1.03892945E-1,-2.6345188E-2,3.306957E-1,9.545903E-1,-3.2369465E-1,3.551512E-1,7.664262E-1,-1.6738673E-1,8.3760536E-1,-2.7503607E0,-5.3307623E-2,-6.3132256E-2,5.327924E-1,2.871646E-1,8.074336E-1,9.6913934E-2,3.3262514E-2,6.1113E-2,-3.9594766E-1,9.9959895E-2,2.8588206E-2,9.065764E-2,5.625946E-2,8.9207284E-2,-3.6030497E-2,9.60285E-2,1.1356588E-2,-3.60437E-1,2.6456937E-2,-1.05764E-3,-2.3760104E-1,-9.0777725E-3,6.133114E-2,5.4772615E-2,-3.8317072E-1,4.376492E-2,1.5314335E-2,8.370837E-2,-5.903978E-2],"categories":[],"categories_nodes":[],"categories_segments":[],"categories_sizes":[],"default_left":[0,0,0,0,0,0,0,0,0,0,0,0,0,0,0,0,0,0,0,0,0,0,0,0,0,0,0,0,0,0,0,0,0,0,0,0,0,0,0,0,0,0,0,0,0,0,0,0,0,0,0],"id":25,"left_children":[1,3,-1,5,7,9,11,-1,13,15,17,19,21,23,25,27,29,31,33,35,37,39,41,43,45,47,49,-1,-1,-1,-1,-1,-1,-1,-1,-1,-1,-1,-1,-1,-1,-1,-1,-1,-1,-1,-1,-1,-1,-1,-1],"loss_changes":[9.784152E3,4.8965155E2,0E0,1.4900336E2,2.9291904E2,9.807501E1,4.1448444E1,0E0,2.5958197E2,1.657965E1,4.8260437E1,5.9305588E1,5.1696655E1,2.2658546E2,5.1612152E1,6.590332E0,3.924865E1,3.943734E1,1.1574738E1,2.0844725E1,1.2543167E1,1.9604206E1,3.7791363E1,1.9333E2,4.6421738E1,4.6131805E1,9.134399E0,0E0,0E0,0E0,0E0,0E0,0E0,0E0,0E0,0E0,0E0,0E0,0E0,0E0,0E0,0E0,0E0,0E0,0E0,0E0,0E0,0E0,0E0,0E0,0E0],"parents":[2147483647,0,0,1,1,3,3,4,4,5,5,6,6,8,8,9,9,10,10,11,11,12,12,13,13,14,14,15,15,16,16,17,17,18,18,19,19,20,20,21,21,22,22,23,23,24,24,25,25,26,26],"right_children":[2,4,-1,6,8,10,12,-1,14,16,18,20,22,24,26,28,30,32,34,36,38,40,42,44,46,48,50,-1,-1,-1,-1,-1,-1,-1,-1,-1,-1,-1,-1,-1,-1,-1,-1,-1,-1,-1,-1,-1,-1,-1,-1],"split_conditions":[-2.8958793E0,3.848101E-2,1.0099007E-1,3.340924E0,-2.52902E-1,7.0055056E-4,2.9324133E0,1.0131186E-1,-4.8337206E-1,2.2897203E0,4.6673354E-2,1.3130726E0,-3.8546315E-1,-4.318221E-1,-2.6248974E-1,3.2396216E0,4.2907996E0,-2.52902E-1,-3.2141834E-1,-4.603762E-1,2.3944376E-3,1.6155322E0,-3.2141834E-1,3.4586694E-2,1.5239127E-1,-5.43372E-1,3.4143503E0,9.6913934E-2,3.3262514E-2,6.1113E-2,-3.9594766E-1,9.9959895E-2,2.8588206E-2,9.065764E-2,5.625946E-2,8.9207284E-2,-3.6030497E-2,9.60285E-2,1.1356588E-2,-3.60437E-1,2.6456937E-2,-1.05764E-3,-2.3760104E-1,-9.0777725E-3,6.133114E-2,5.4772615E-2,-3.8317072E-1,4.376492E-2,1.5314335E-2,8.370837E-2,-5.903978E-2],"split_indices":[37,16,0,15,31,36,34,0,5,15,32,32,2,3,6,17,34,31,16,3,30,7,16,36,15,3,9,0,0,0,0,0,0,0,0,0,0,0,0,0,0,0,0,0,0,0,0,0,0,0,0],"split_type":[0,0,0,0,0,0,0,0,0,0,0,0,0,0,0,0,0,0,0,0,0,0,0,0,0,0,0,0,0,0,0,0,0,0,0,0,0,0,0,0,0,0,0,0,0,0,0,0,0,0,0],"sum_hessian":[7.468567E4,1.6536479E4,5.8149188E4,2.71075E3,1.3825729E4,2.0836382E3,6.2711176E2,3.15356E2,1.3510373E4,7.7275964E2,1.3108785E3,2.4085298E2,3.862588E2,1.1013219E4,2.497154E3,7.629238E2,9.8357935E0,8.8884766E2,4.220309E2,9.9412926E1,1.4144005E2,6.243574E0,3.8001523E2,1.0334193E4,6.790255E2,2.2896846E3,2.0746954E2,7.4494006E2,1.7983793E1,8.485844E0,1.3499501E0,8.496281E1,8.038848E2,2.480379E2,1.73993E2,1.4755463E1,8.465746E1,1.2066804E2,2.0772007E1,4.713049E0,1.5305251E0,3.7413672E2,5.8785133E0,9.929262E3,4.049316E2,6.7758154E2,1.443939E0,1.0775271E3,1.2121575E3,2.0355304E2,3.916503E0],"tree_param":{"num_deleted":"0","num_feature":"39","num_nodes":"51","size_leaf_vector":"1"}},{"base_weights":[8.0035496E-1,1.2673673E-1,1.0089462E-1,5.009014E-1,5.648562E-2,6.3073266E-1,9.098419E-2,1.0112437E-1,3.6113396E-2,9.2957574E-1,4.6177796E-1,7.1025586E-1,-1.2550948E-2,-2.2740822E-2,3.3538967E-1,9.4742143E-1,-3.1884816E-1,3.78939E-1,9.2539907E-1,9.296058E-1,5.7491675E-2,1.0296763E-1,-5.185789E-1,2.4380605E-1,-9.715373E-2,3.5120526E-1,-8.329951E-1,9.6329086E-2,3.1091398E-2,5.870988E-2,-3.243874E-1,9.9965304E-2,3.1773586E-2,9.404677E-2,-5.0168347E-2,6.751546E-2,9.9990286E-2,-9.541283E-2,3.6536492E-2,1.2313397E-2,-2.135169E-1,-2.0600966E-1,-3.71984E-2,1.0905818E-2,7.190562E-2,-1.3383428E-2,6.298928E-2,3.1268664E-2,5.782636E-2,-1.8698572E-1,-1.8994283E-3],"categories":[],"categories_nodes":[],"categories_segments":[],"categories_sizes":[],"default_left":[0,0,0,0,0,0,0,0,0,0,0,0,0,0,0,0,0,0,0,0,0,0,0,0,0,0,0,0,0,0,0,0,0,0,0,0,0,0,0,0,0,0,0,0,0,0,0,0,0,0,0],"id":26,"left_children":[1,3,-1,5,7,9,11,-1,13,15,17,19,21,23,25,27,29,31,33,35,37,39,41,43,45,47,49,-1,-1,-1,-1,-1,-1,-1,-1,-1,-1,-1,-1,-1,-1,-1,-1,-1,-1,-1,-1,-1,-1,-1,-1],"loss_changes":[9.69116E3,4.286608E2,0E0,1.3713953E2,2.6705933E2,9.841461E1,3.9841946E1,0E0,2.368446E2,1.603241E1,4.775638E1,1.2690929E1,3.1225111E1,2.2291272E2,4.1126297E1,6.734436E0,3.0255365E1,4.011876E1,4.5401917E0,5.153847E-1,7.65292E0,1.9895733E1,2.16676E1,1.5699638E2,2.3438333E2,1.889392E1,2.5123684E1,0E0,0E0,0E0,0E0,0E0,0E0,0E0,0E0,0E0,0E0,0E0,0E0,0E0,0E0,0E0,0E0,0E0,0E0,0E0,0E0,0E0,0E0,0E0,0E0],"parents":[2147483647,0,0,1,1,3,3,4,4,5,5,6,6,8,8,9,9,10,10,11,11,12,12,13,13,14,14,15,15,16,16,17,17,18,18,19,19,20,20,21,21,22,22,23,23,24,24,25,25,26,26],"right_children":[2,4,-1,6,8,10,12,-1,14,16,18,20,22,24,26,28,30,32,34,36,38,40,42,44,46,48,50,-1,-1,-1,-1,-1,-1,-1,-1,-1,-1,-1,-1,-1,-1,-1,-1,-1,-1,-1,-1,-1,-1,-1,-1],"split_conditions":[-2.8958793E0,3.848101E-2,1.0089462E-1,3.340924E0,-2.52902E-1,7.0055056E-4,-4.5734003E-1,1.0112437E-1,-2.3316891E-1,2.2897203E0,6.3644566E-2,3.1372757E0,4.2907996E0,-1.9094014E-3,4.1463118E0,3.2396216E0,4.2907996E0,-2.52902E-1,-2.6248974E-1,-4.2250827E-1,-3.8546315E-1,4.9124413E0,-3.124348E-3,6.603851E-2,3.4586694E-2,-2.2418998E-1,1.3824267E-3,9.6329086E-2,3.1091398E-2,5.870988E-2,-3.243874E-1,9.9965304E-2,